{"sizes": [784, 30, 30, 10, 10], "weights": [[[0.00762157219857896, 0.007883165094705092, -0.009652708443559043, 0.006195456098917466, 0.00939492119690122, 0.005567179292512088, 0.002240134092628227, -0.0054654252242332555, 0.0020069949974951653, -0.00621515566086344, 0.0006168822271426576, 0.011799134370790722, 0.00031992401298829617, -0.0011753878784987932, 0.0026195713378487006, -0.000790535287397998, 0.0027321241745497165, 0.0009632981566449741, -0.012775934725366816, -0.0041405504925083846, -0.01451585350923971, 0.004360482048052735, -0.008126019090092888, 0.00303803572864622, 0.016676828719822404, -0.01104596018551758, -0.012533679952588625, 0.004643856392450196, 0.0014038289941325098, -0.005663841663535241, -0.009488380380752778, 0.0012574209241144195, 0.006844781396705441, 0.019037602793158206, -0.010144328028004738, -0.005455937595449466, 0.00035760477361390105, -0.010624345877372491, 0.02143675284020574, 0.007719711141388104, 0.007656244412371475, 0.006652544788525452, -0.015347661512046527, -0.010439195211635796, 0.002009870353049538, -0.002588335215424499, 0.005927385549116768, -0.0023856267595720433, 0.012753334606953333, 0.007074140299586584, -0.004298211330355176, 0.0009424056511646042, 0.00016092303465807891, -0.005982362806443091, -0.0033693561293870427, -0.0012226773926932184, 0.011276232773495855, -0.0014618562350049162, -0.01000420834141688, 0.006391380222041963, 0.013841477803585215, 0.002674179758378527, -0.0018873081072375668, 0.0001293829397296466, 0.0016249245236215322, -0.010714974326465352, 6.06642811702838e-06, 0.0058059652780487435, 0.01741018212424565, 0.008295919906357698, -0.0025478496581825, -0.001112275060641363, 0.017708410823246, 0.0306625427239381, 0.028796070232439443, 0.0213002662944628, 0.0038341136662252903, 0.004733110988025201, -0.007893195599112958, -0.0017855118872676665, 0.002309752076353137, -0.01556867802403591, -0.008772205638842963, -0.007821131539779268, -0.013990905563602876, 0.008633274238070717, -0.0023416139973006476, 0.0027734827439471373, -0.0051353941825544635, 0.004773272089877456, -2.2596936100090772e-05, 0.013327364212656082, 0.01475485850046224, 0.013286601387361546, 0.0170509486361982, -0.00545021484995895, 0.01729871944401811, 0.028597952680633733, 0.02023228920579807, -0.042534844385702514, 0.02551031493296327, 0.025583081817195787, -0.006449731761102065, 0.012187343831136037, 0.0008176079990666207, 0.0024715395178750324, -0.02001000975878558, -0.006830774555381412, -0.004016002909369551, -0.003019425308936308, -0.0032055752671618317, -0.004412701249575167, 0.000900670552419483, 0.011112121227326868, -0.015514238829531039, 0.0036892475691297486, 0.00138276584200795, -0.01131474784936476, -0.039948819392885714, -0.03265521015821019, 0.03142660293511809, -0.0440493424929097, -0.0461244215819723, -0.010336326243732152, -0.09260450689319372, -0.09642957945433459, -0.1131051086789133, -0.07878853148030661, -0.001775809735173822, 0.019847634218245754, -0.024829086851326745, -0.04202453396738146, -0.03822748549628076, -0.025157483594079027, -0.024808259756367048, 0.012565085074302963, 0.037587809042614675, 0.007049462530942861, 0.005585258203860293, 0.006104632599243897, -0.009510915984256676, -0.0037216508241451457, 0.0002312943873462241, 0.010076971285731068, -0.0022402989714855512, -0.046648708840248895, -0.027452524996551517, -0.051532678932252225, -0.04379847832725482, -0.08295131693137951, -0.1499554393004685, -0.1483112866935732, -0.04776971200812139, 0.017207915237583925, 0.04937338981527518, -0.14544404932314292, -0.15101162224721473, -0.044253722441539314, -0.10444837740273953, 0.005374604898752965, 0.08848964529653704, -0.11021566050930458, -0.022917892773141376, 0.07220021419290708, 0.031577650498237575, 0.013662950771555596, 0.0013373884861931874, -0.015142112163739641, 0.010379803660960687, -0.005649335579357576, -0.006637344989550862, 0.006664454903474343, 0.0056332648917025085, -0.022666225229293596, 0.024226999176797836, 0.02954504117353338, -0.03851864945880603, 0.03912572313415155, -0.052000295977668594, 0.0151806511507201, -0.10109300166750457, 0.013570101395661614, 0.051650795713329624, 0.2230709010495108, 0.15948309116221868, 0.1515425546953641, 0.20482239474489097, 0.21406959825583896, 0.228112612769231, 0.0575468956825725, -0.05696869355337061, -0.015327383411982812, -0.02104609267319486, 0.028383735765957093, -0.002564180788652126, -0.007602728676035773, -0.011397417894439574, 0.01002215964179158, 0.02610038398401397, 0.002177828801059788, -0.005584542331244523, -0.1315686865209524, 0.020359005881769945, -0.08024541165607825, 0.08749636110478219, 0.016715236192970596, 0.13698620269851142, -0.009486412168710287, 0.06438879340755618, 0.14472858795619914, 0.10138019621328834, 0.19790595068452294, 0.2659547432438845, 0.215040206793819, 0.16296323119394804, -0.04629673727673564, -0.044573570310723905, 0.006340697724992343, -0.15716744270821245, -0.17026769494960914, -0.145139834539005, -0.03676192307349605, -0.0272691138972171, -0.010251477980377335, 0.0025569928096064935, 0.00022043720596278982, 0.015494628382273369, 0.03463534243854271, -0.0334919745723315, -0.06274702280025587, -0.10068685809229899, -0.04224031245847158, 0.04438554303303294, 0.061837224184726224, -0.016631116736056266, 0.154966294953956, 0.06504337805731154, 0.23622516809602292, 0.19993058953218093, 0.10283081376292873, 0.13983972852949736, 0.07505462196204331, 0.040559232496517356, -0.10197147992887616, -0.10083074131267442, 0.09517314858911709, -0.024462860159653075, -0.21223792214922985, -0.15766805051651367, -0.0221980212437988, 0.020385484978670064, 0.021278673494930612, -0.01094706255470847, 0.0071767274949627174, 0.014246127176108387, 0.058594372229984565, 0.026260740940734374, -0.04759079155937023, 0.021297174736055923, -0.007321425597996003, 0.07342826293890518, 0.09163518637124667, 0.005786813090554562, 0.037499225849566456, 0.14754098751085581, -0.003804485931729493, -0.028337752306274958, -0.058936891023127415, 0.0051523384157316394, -0.07471199529123708, -0.14325379730172144, 0.029917332873107088, -0.016465783576921352, -0.04487680329218094, 0.07917149730557702, -0.09108500241371485, -0.058410043851532326, 0.03853271488519701, 0.005425179814741582, -0.01061640336639406, -0.005203065816794949, -0.001849159080943537, -0.012795004923221874, 0.07174608647010428, 0.04852086544001316, 0.048008325354187364, 0.05577063998400731, 0.013264209610927495, -0.05548483501152383, -0.02710443659607212, -0.14919008613458568, -0.15062564871610687, -0.1714979910103403, -0.406609181443479, -0.33282436557367034, -0.4027042136707432, -0.18129473848711367, -0.26488192715965747, -0.08937045397322012, 0.04394628419695746, -0.02429698402405412, 0.05718030050679239, 0.15595009607894691, -0.004162099183072929, 0.005319688312563261, 0.003243402514591652, 0.008960032885752181, -0.003487703905906442, 0.00930375448890463, 0.0012246797194831694, -0.02376164896228584, 0.051452262862699584, 0.030523188446315172, 0.02343402069620103, -0.03936765407760787, -0.12127088533305798, -0.1278874168030307, -0.1370842284886492, -0.3207444858349852, -0.3584467582300919, -0.5712716806580563, -0.3958311739658772, -0.12593327509926966, -0.13342240771674777, -0.004770475123312207, 0.007673862100714517, 0.007643889925125677, -0.0011187717918631599, 0.1398007737496611, 0.10209318194056792, 0.1365637515082514, 0.1179466129252199, 0.0767010363333159, 0.033386069041088526, 0.026422777778423515, 0.008322213357233234, -0.007371374162087489, -0.012680375013145744, -0.011256611143467007, 0.007028573211399139, 0.03497872371113713, -0.07764388139921205, -0.07634842022806075, -0.14856317310236117, -0.37750632049229954, -0.33335411946763055, -0.28411715272786475, -0.26698415960782024, -0.38572246296799334, 0.14181685357143514, 0.16509320793242102, 0.17623693147256306, 0.10081430252838867, -0.03196275964642236, 0.1794946304538599, 0.05347941623216981, 0.10741028469724889, 0.051822166902365435, 0.15453902217463816, 0.11643656194937259, 0.017060038965693684, 0.04314596887182916, 0.018874690956211353, -0.005993372008304378, -0.0023515771341335047, -0.013565253344054373, -0.021962389607042464, 0.0034110913149730223, 0.07440309035763713, -0.008210673317305501, -0.13039608303971348, -0.12179970710406, -0.05652607657566055, -0.13180193660051917, 0.0679609995865972, 0.11574583258102605, -0.12189411019629913, 0.11351515903232584, 0.06408908369085425, -0.01962653819382836, 0.15749880082566792, 0.0708895015020985, 0.12961062995451053, 0.011236267605449306, 0.0029918884077379804, 0.03216665304753787, 0.03154747722290003, -0.0347918131786276, -0.04220700510487226, -0.012673875784761578, -0.008880527609628867, -0.000826471396401355, -0.00905010994988232, -0.005776219543871307, -0.021876113990597235, -0.013346274647066274, 0.05376924486726478, 0.0381719741116222, 0.12721361768883577, 0.03177109610489115, 0.18083008461929617, 0.15506650131410188, 0.24099248306030718, 0.07231965573231641, 0.06787067774587704, 0.25610145574024173, 0.1699675484648524, 0.1559981930870256, 0.0587943608329768, -0.020015841389124486, 0.04436089972651611, 0.014063894280930158, 0.07586453083675034, 0.051283227072648985, 0.00972338386361408, -0.11625053440365046, -0.08673371951145009, -0.038532437506469196, 0.022301140470484652, -0.0006367024997614176, -0.007805354625565676, 0.037134673017021884, -0.011597778323393686, -0.03810334633561776, 0.027573156791007473, 0.13559454394833267, 0.1425794228624496, 0.025078716369990872, 0.16775724464660913, -0.06906136287515255, 0.05716959362243544, 0.1386613584725555, 0.12528268086454625, 0.09712797803258583, 0.17225749902786622, 0.21402249154196562, -0.009208361653885319, -0.11951228825812166, 0.02476893741062742, 0.07660636046383686, -0.0014297909738799411, -0.023389042155127226, -0.01021782823227257, -0.021019835160835474, -0.04938924926803371, -0.05674032868621501, -0.04471359708118455, -0.0028546617784008187, -0.009016969417954004, 0.02076458313203343, 0.030178953274292885, 0.05721100931182661, 0.09900962881893971, 0.06528699297228864, 0.028077038875718115, -0.026098049317198637, 0.07337926933329181, -0.012046035595742003, -0.0166224898054027, 0.016147803589618724, 0.15194587565674803, 0.03990966977222026, 0.13286381366918637, 0.12872135398980422, -0.09921711575126305, 0.015326495458995292, 0.08985696328608922, -0.08683194388666202, -0.04999441199045344, -0.16593741412181237, -0.0356869766206908, -0.024125632116046257, -0.024458491054262517, -0.056063390128479405, -0.013501133954063532, -0.0028072954373527716, 0.013738938521789378, 0.015085745744109388, 0.04241604184496007, 0.12861124563597612, 0.06779617616156851, -0.009586221617078686, 0.05617942682271563, -0.011276717971090552, -0.14475439760306996, -0.04267562726282834, -0.06800025244860286, -0.17777307171556286, -0.12789331206407054, 0.10927530662149157, 0.11351511520838736, 0.12161545522422695, -0.07778353448402417, 0.02637314934098907, 0.16662508621313457, -0.03613651341107444, -0.18371278888639972, -0.006338819684825244, -0.04609249658951025, -0.03913793372055268, -0.030358374510479996, -0.034217499585635885, 0.0031583217105837728, 0.005312219312680588, 0.0017526027057581967, 0.006125965766262653, -0.004542382245848246, 0.15056787591576648, 0.0613056992601077, -0.013520307799164433, 0.06410098693696674, -0.018786563905218146, -0.04187836623968942, -0.12151967524195068, 0.05834895970461102, -0.051679746848102226, -0.16923388302128603, 0.12811842981294333, 0.13583123068888772, 0.1010587076606182, 0.00847658615759089, 0.06193966733514571, -0.0035038320775118434, 0.023540829338884173, -0.06740824004892754, 0.015204296221847068, -0.09205485189111981, -0.09037245096067001, -0.026376915296070273, 0.028395864500937857, -0.006704946775631682, -0.021862681355962556, -0.0037948798964701357, -0.004226162109431801, -0.010735179524162957, 0.06168305995314484, 0.06020997226511075, 0.10184521430530764, -0.08864893208668177, -0.10640844022390394, 0.06098479170569757, 0.001229697427351, 0.1041369935656146, -0.0171023825841986, 0.03534119997289771, 0.07826878500071273, -0.015095750246918038, -0.016099130139423976, 0.03730298189325007, 0.038655802069053224, 0.06704117420114022, 0.029417416456009312, 0.004609127200047474, -0.10999596622828017, -0.08858219516233791, -0.048287332566520465, 0.019379560300286737, 0.035812747759633744, 0.0023480497342538865, -0.011749387010387087, 0.001115441060427619, -0.027818809817536715, -0.02795868383207481, -0.01147801993421053, -0.0013391972241163512, 0.057503758850862, -0.011523420301645956, -0.0545336362236378, -0.04801072956414919, -0.04093483851011803, -0.04995481222251172, -0.050269122441727355, -0.05842771806589503, 0.03458499102996328, -0.03459188239378883, 0.016324184586078733, 0.030861019679434193, -0.023417718985969484, 0.06696846556962371, 0.0029295169783920836, -0.07000659094940219, -0.08931776709377992, -0.10195482222465377, -0.10151783845308446, 0.052823975233338205, 0.032784972934203196, 0.00431830815846745, 0.003637032177512806, 0.009148760922459493, -0.00743350822310133, -0.021090250334513404, -0.013560698962425656, -0.037311955754074956, -0.0046522412388751095, 0.0011831266050359038, 0.15634708879189305, 0.0226806809510451, -0.10147878869516815, 0.007284262970602797, -0.18181245885167693, -0.02100006085425443, -0.01701452491958003, 0.004485386886351241, -0.13991630763029686, -0.04968752492938795, -0.05877925730931529, 0.003183778334974598, 0.044089066323499244, 0.011092122541462902, -0.04463208226088817, -0.15743047286591696, -0.10296197451870294, 0.017796227610076435, -0.0034227045874366804, -0.017764561209546063, 0.0020498554478349433, 0.0031862110807930758, 0.007031090470010448, -0.027470762007766675, -0.05885274680072703, 0.026857664239371516, 0.008035546393827296, -0.03435331376001063, 0.06991173448254732, 0.03413717144497071, -0.03392647340705489, -0.04399752264479193, -0.14251324038108085, -0.03804673516170535, 0.01620614134997751, 0.04982152355249079, 0.028562040304791897, -0.005556008907937427, 0.019905344836340592, -0.007990432087153691, 0.05225186693292209, -0.02099484041778177, -0.12552553201942035, -0.14032675722713472, -0.031523981416411606, 0.03029563542593788, -0.023470149780108262, 0.01156281447889063, -0.0038003804736135276, -0.0026138194795089476, -0.004576512818461861, -0.0024904870792658777, 0.006160120167984645, 0.046526277604315845, 0.06309456739262141, -0.033091123221887626, -0.010955266132091777, 0.026154893540685127, -0.08457080932077495, -0.055382530732672124, -0.1014598359940196, -0.09166821149525421, -0.04226595126978104, 0.007506871579379449, 0.06107921594927354, -0.0559618621011744, -0.07962868614138618, -0.0067945967962317125, -0.0019749794188613453, 0.0014555340430133334, -0.0821422880872977, -0.025216520680609623, -0.02717959664203547, -0.00147514281874437, -0.027510341044008572, 0.0024209476482170253, -0.00826826041122061, -0.007350570434886683, 0.010278943034081691, -0.0028096380111599906, 0.051405618218978454, 0.11609218535670413, 0.11125322050797637, 0.15913134728752246, 0.11951800458361085, 0.018072212050936388, -0.02759850980265041, 0.038347833565063716, -0.045836889027507814, -0.007499310346809344, -0.023354110406183886, 0.0198986464394911, -0.014023004219926454, -0.10614848495713784, 0.04510458663701049, -0.1436437811515022, -0.07787351812173196, 0.052114713308456816, -0.041299340290273545, 0.017657411325521063, 0.015900344649043236, -0.014271108372112483, 0.0008646383877698974, -0.00022810456437450535, -0.007132946674130202, 0.003918081339880212, -0.007327433331345476, -0.00013091621669382387, 0.005027793177317673, 0.05061289490398508, 0.08202346166731045, 0.07224810141415342, 0.15013331257047485, 0.18050143786319017, 0.18657971196240764, 0.10426597760642618, 0.027596846556386515, 0.004115754954957773, 0.044044948702787134, 0.012468180566555692, 0.017385339591050968, 0.018258925838054475, -0.12378676434315998, -0.06721895298501815, 0.03765245520283021, 0.10235500329689709, 0.04462606655114639, 0.02039194271740593, 0.02486835588193787, -0.0030378561996002276, 0.00903687572557567, -0.01807024290567337, -0.020374854471267648, 0.0022144917761534634, -0.002330180074867134, 0.013931554118284572, -0.008922648777188171, 0.020969168659517156, -0.011760650375701393, 0.02875512688091498, 0.06304800982796163, 0.0571188770500456, 0.08468586065371222, 0.11763498565669843, 0.1011658423785857, 0.06242399304623272, 0.15566010880553108, 0.10509660583881886, 0.011638435762669304, 0.05054619452312859, 0.03919998941441961, 0.051578443976118035, 0.03950592364893736, 0.0595672841553963, 0.05197490664599608, 0.008767738884619795, 0.009148214109696342, -0.0019116723007482253, 0.020519013177498664, 0.0001491959080665509, -0.0004966866739673852, 0.00944523241314955, -0.0012510274792907072, -0.009715162026740496, 0.009955402287751481, -0.002835836481215194, -0.010397210971610681, -0.0002366149381041026, -0.0017130153155710734, 0.004171017424107555, 0.00031263593582411245, 0.0026834588733288863, 0.00397023469923102, -0.0070131701913046145, 0.007573226034421925, 0.009661729369467114, 0.005077542350685527, -0.0033934341557790198, 0.00856431556022935, 0.016579292816059996, 0.0005512317226318654, 0.006552612531832046, 0.0013752146171713225, -0.00777383814161681, 0.009600109937906174, -0.007368585677368422, -0.004313840137176351, 0.0027939862358590407, -0.006287378580645612], [0.0017766907275508107, 0.008858699544681296, 0.013673473149964695, -0.0062686538411871676, 0.027455770469852463, 0.0026185911650372803, -0.010355545415389475, 0.0013028701215941016, 0.0013849407636210833, -0.00833839350234528, -0.005959278333496639, 0.018511351497017034, 0.000796913711555288, -0.004589761359980944, 0.006220062816798096, -0.005433784672443206, -0.0005475696060196815, -0.017517846153674615, -0.004323945334760466, 0.0014318512728712684, 0.001927760113294784, 0.00771297235932091, 0.002672493431965791, -0.006920082138047266, 0.010646410378743025, -0.007163367417464349, 0.0030630554846370274, -0.0031305555377327933, 0.002966062726448681, -0.004183397480782469, -0.014394387232188085, -0.0012262815413205718, -0.0044115338688669025, 0.0049194213944705285, -0.004012999507636441, -0.006855764776264777, 0.005990404685603575, -0.01005133129632182, -0.010623613434850292, 0.011456013981336539, -0.011817835983486687, -0.011943468774787788, 0.007383845861310745, 0.0073710587383330065, 0.002741439540275416, -0.0009908793680519915, -0.007527294423812946, -0.0070045637352103415, -0.005832308183514402, 0.003582415137573044, 0.00038012750708511014, -0.007506782933993723, 0.008342179465425486, -0.007568441492062155, 0.001041328310427893, -0.008151796593176441, -0.005730470384825766, 0.009983225898237448, -0.0034464170056643464, -0.0059385777368059275, 0.008600047440322623, -0.0054358879237774525, 0.013356677920638882, -0.001680629701857826, -0.0009115090410882706, 0.006170648074287722, -0.0001681281123430357, -0.01248206070055359, -0.018602871408941853, 0.0063768494771794275, 0.010716590887784561, -0.0075066707939411975, -0.008072023547858014, 0.00838885729845972, -0.0007904450923715659, -0.005056087950886967, -0.00319821517958326, -0.013596162809659744, 0.002704101582321302, 0.00028681066260782936, -0.0022540259863411847, -0.011789990710460312, -0.0009466820787113902, -0.004687945621319324, 0.000984624574139358, 0.003658660118336301, 0.01747916163313602, 0.0024594372240187468, 0.004430545707842477, 0.013414782964712534, -0.002965990646015352, -0.0009710631290923082, 0.0048744199923602335, 0.013987026323427307, 0.0021270891083944015, -0.005628282459650166, 0.017741661549146304, -0.017962492737178124, -0.001146982051172088, 0.006102934871679147, -0.005913237258647656, -0.007775154558213246, -0.002893261849767681, -0.003814255245682274, -0.009142073402554894, 0.023014860992496704, -0.0021501251790342693, 0.003780453528507568, 0.004712171906058761, 0.008570955504365409, -0.0018010187390550209, 0.00010774125035222431, -0.012686134791089031, 0.007937770236843656, 0.0031258184082905444, 0.008787492439722107, -0.004620951008667736, -0.0044270697504996594, -0.0037363457742940346, 0.0037329887635900887, -0.009699258591914102, -0.001289275026818522, 0.0005090611876160591, 0.00271469781588781, -0.00027031582358244907, -0.0026131441515236725, 0.0082675581093695, -0.002293932155687634, 0.010297185721686013, -0.0037679210742190957, -0.0018135636378452844, -0.004981168005265328, -0.009402176467255458, -0.0011729523835026223, 0.002939487639809386, 0.005204731132875394, -0.01368695768258004, -0.005914970793429759, 0.00253590239541265, 0.00451855379695977, 0.01114979900344554, -0.006606741264280457, -0.0024772231543239544, -0.008545159509695354, -0.001060813272934328, -0.011513191179862792, -0.006747479910059993, -0.008786151848174915, -0.005127122086049872, 0.017464508793189445, -0.006233369372558391, 0.002524649022554215, -0.005786345722028327, -0.011618648915632657, -0.001448344896624559, 0.008172949902293648, -0.00111788992619505, 0.011297636278265707, -0.009520731183527831, -0.01628534556220882, -0.0143146172274774, -0.013339427111592026, 0.0030682569852041605, -0.0015805637966459678, -0.001572989351206132, -0.005407027757212962, -0.005263127372403201, -0.008317435243690219, -0.011769875005758733, -0.0007152211579240323, -0.002130087113512166, 0.009042259392017723, -0.004313293051724502, -0.002941768664727642, 0.00040549533616599654, -0.009023190478599723, -0.006711181029181597, 0.0023343241477063116, 0.012252234515911405, 0.000164442102490723, -0.0014392978818122183, -0.00594938173646919, 0.018578866057394037, -0.009301452889996538, -0.015257616772040478, 0.005424012749752596, -0.0008867094132552345, 0.007535063556777135, -0.014424955675565688, 0.0003496035612685029, 0.00776114560256657, 0.002952042643703041, 0.0026595870367072047, 0.012861049061946532, 0.006570393058027464, 0.012032844263560844, 0.0051520389093930655, -0.0018963405629747988, 0.003441057473300938, 0.004437632063574691, -0.012830965155332994, 0.011989129056125291, 0.009678701465838204, -0.0064700729909508625, -0.004639952465732696, 0.01307345628905833, 0.006328995723934535, -0.0028378086838870393, -0.003928286002973327, 0.00139250984149123, -0.010301057562383087, -0.013192845253297563, -0.016262417192246952, -0.011900795145661563, 0.005235889381711233, 0.007725566194436706, 0.0004078885138371961, -0.0007252318851656787, -0.0033287880182438457, -0.010489207038129415, -0.0013411983757123562, -0.001880058786172473, -0.010172574244548906, -0.013653594325966387, -0.0014678681744289361, -0.004541316449789056, -0.00775232302673177, -0.008667926835189533, 0.006351398733218343, -0.014397024342874097, 0.007570128236367815, -0.007883831119497567, 0.002009219853192724, -0.007630380191057409, -0.0021279185475205544, 0.008678301968574786, 0.015666546644749313, -0.001622312012710355, 0.007870871258225172, -0.0009673444361522532, 0.004889561236435235, 0.004810159559168891, 0.01180804354143798, 0.01105750299048427, -0.00956081327387945, 0.014172892112627932, -0.0073823840810836715, -0.0005846413949464234, 0.001556169223315463, 0.0029527702733468052, 0.00040352447046336807, -0.004794770138746707, 0.00043352114237175016, -0.0024723220126668713, -0.00799649089977508, 0.00533855338907613, -0.001359726484584973, -0.009390432357642035, 0.007246730786023632, 0.008106357362593282, -0.009693880769022303, 0.006960084986117369, -0.012419205033720942, -0.008979344899920964, 0.016250667898534164, -0.001989714155875934, -0.004498264513012312, -0.002677947452460789, 0.0012812572815918276, -0.004102448642287148, -0.0018396603702401247, -0.0064347696322466855, 0.0036110668718215993, -0.01299643503787631, 0.008421075928642717, 0.002059033902574543, 0.008108553991964102, 0.0022142521346109954, -0.0036408319632946474, 0.004472291764392072, -0.005146156690362624, 0.009849033942308207, -0.000922975444346626, 0.011572540341390177, 0.01887620858108257, -0.008049359721935701, -0.013751963810737186, -0.001358283397844038, 0.0032594634357314797, -0.007618696573068761, -0.0052660242155509445, -0.002787595778354266, 0.011106633023798402, -0.003822810571391419, 0.014606494687750047, 0.005573823963860885, -0.003268838681319175, -0.004765116948076167, -0.0037086772786592255, 0.0034075003818974862, -0.008013979575185246, -0.010447048726150205, 0.01046069117098715, -0.0022311346805162936, 0.004580756499484058, 0.000800751486683652, -0.002923919959872147, -0.007785445075374005, 0.018886283473900596, 0.01199163174580744, 0.0025045209184891564, -0.01689156054804828, -0.010759870740662215, -0.0055017323258969185, 0.006338472647265112, 0.004616981881296219, 0.018515985577385454, 0.001992261072462451, -0.001479060166812631, -0.0033915040101760692, 0.012424145087085411, -0.006677743036665496, -0.010055993494045403, 0.0004886736885417704, 0.005352551429272527, 0.010307974366687156, -0.010957147063795449, -0.004696022767503315, 0.010773552274261385, -0.004362016914891442, -0.005489595834518456, -0.012291068541258532, -0.0068959251659210736, 0.009408103931478624, 0.004090338571535418, 0.003823478996132276, -0.004170380193768295, 0.0030404549481496917, 0.004705148910168133, -0.0008496761483068954, -0.002449676386938026, -0.0028634058767454396, -0.004628103511714118, -0.005149564278260443, -0.023959558146313606, 0.009152208372067414, 0.0060409631344509425, -0.002189800443761863, 0.005225238304172083, -0.013661847546503432, -0.0027386532377408953, 0.004659472830864143, 0.0232512013631445, -0.008202460016350445, 0.0013465815140599983, 0.0010044820839525863, -0.011989682477327556, 0.004850547654078938, -0.0062408052788650355, -0.0022593020242648015, -0.0049553735798862145, 0.00584446152617458, 0.015712958644817077, -0.021926007800624765, 0.004674422567807976, -0.004678655401505238, 0.017084180743729253, -0.010477835802056891, -0.007987114654493279, 0.007858136442411904, -0.0014320453871777567, 0.005037876235293828, -0.0031742577105879186, 0.004267334338697627, 0.011543417622728714, -0.005103239383060361, 0.01101398854138615, -0.014457691256526623, 0.0008425506608628315, -0.017103147569862136, -0.0037315826485545055, 0.01640051559911143, -0.003064960455770122, -0.0018688347519133929, -0.00018365089826118027, 0.008671134003298933, -4.4497853047651354e-05, -0.000942645878760285, 0.00910610793748805, -0.007214042427770568, 0.0020933956896034864, -0.008684647649080187, -0.002460273764111054, 0.0025877948504377944, 0.007704384693273876, -0.005949772281312258, -0.00019581203065007516, -0.017566653457554024, -0.005985097457229913, -0.014752279702320022, 0.009704000445782896, 0.011431476568679882, -0.008936730937819767, -0.006182882463868891, 0.01981424364214446, -0.0025868023179611006, -0.00726972366431191, 0.003839832915344793, 0.001058063272978972, -0.0018886431448873564, 0.0019790988229291266, 0.0007539524482292171, 0.004152859907032214, 0.01230535299485977, -0.008080946802760636, 0.012958181783471714, 0.002748412991085449, -0.010945698014066538, 0.01747328857896526, -0.02199453979083096, 0.001248938925629039, 0.004732047066468963, 0.005860555688142343, -0.0071647921230806955, -0.0068755704501186924, -0.0014571431136361202, 0.010224198942060348, 0.009156505544274956, 0.0005313612664529753, -0.0011084125173493125, -0.005711506562619005, 0.0002644884566045824, 0.004894692281929624, 0.007786103880380468, 0.0008575590464535258, 0.002329819963492815, 0.003773195140962063, 0.012848830471985172, -0.01039055174888486, 0.015369174108018628, 0.004987583844813693, 0.009662826972178639, 0.0015580149215062824, 0.011437390297016865, -0.0022256021406469343, -0.002060050995612497, 0.000877011625544683, 0.003969334037837598, 0.0015343436944753907, -0.004962942184594558, 0.010711025624603373, 0.0007496488765774648, 0.005164370043798373, -0.005574665667438898, 0.0031846428603422476, 0.004956284630402267, -0.0022421598847460014, -0.002373604206539431, 0.005210382568725834, 0.002466277019377236, 0.00635318855925512, -0.008165916964931486, -0.0017698426422582555, 0.0072161104037650504, -0.001249593883743305, -0.007708378460672744, 0.0007304437799004001, 0.00870826994813675, 0.016002778121073584, -0.004051126489645153, 0.008923986232504916, 0.013561412382535457, -0.004305006304342738, -0.010228185515928016, -0.0011276568153763455, 0.020237276199254122, 0.011899392309829534, 0.0037799754225897003, -5.431983000203296e-05, -0.0076499948724204035, 0.012228822126516808, 0.002294275843759154, 0.0017095543228949597, 0.009200218506933066, 0.0020024711651082778, 0.009678253131678909, 0.0034445986727394953, -0.007774755379238839, -0.00018016209344385057, 0.00971318867157529, -0.008399027937690021, -0.010362639390894312, -0.011120066179591607, 0.006654463466193272, -0.002748990011082314, 0.008554422460926896, 0.005556870000744938, 0.004905840888989947, 0.000893579739826722, 0.008855390265525601, -0.012756220012375315, -0.006202263304609509, -0.0030802087992055902, 0.004404799241316588, 0.0015940800041471033, -0.004826396843303979, -0.00755887436872032, 0.0038902986682839854, 0.004195193305498756, -0.0021830674941765147, 0.004992156073156296, -0.002982511751163239, 0.012112063470153861, 0.005002042787244356, 0.00037093082617368453, -0.01749905504296417, 0.003910639199365422, -0.005842097249066913, -0.006089145345165951, 0.004785561735448951, 0.01237624188040543, -0.010743978279336161, -0.0017154847094706313, -0.015348806311675692, -0.0029937454461320505, 0.010315289316952825, 0.013821816430137851, -0.00372036723929821, -0.0061208924782732, -0.0026165962675817078, 0.0008055265310889365, -0.008704157444044656, -0.004941018059603817, -0.007116742197195133, -0.009002535925941984, -0.005035622361209069, -0.00101863706450087, 0.003053787658770014, -0.008572536984309018, 0.00797728263953839, 0.0019784514780179824, 0.011360009416626238, -0.000868358039220142, -0.015497242266333155, 0.006661041723638937, -0.005477475952316145, -0.001652836836241496, -0.004870967449933829, 0.0002835365417554361, 0.005976589233029659, 0.00563347661298792, 0.0023430425139845464, 0.008388627684359972, 0.008641344995902701, -0.008450512931348955, -0.006998022280325124, -0.004183254378170662, -0.006592057392178691, 0.002297098006461475, -0.01988958694595663, 0.009844156347528435, 0.0007341139907107806, -0.006524683402978061, -0.010920005889564885, -0.008198441438483724, -0.01111700144319185, -0.002519318990456266, 0.0002463224627583179, -0.0020779677372067267, -0.006222366990485947, 0.002148939858366402, -0.013659678210627477, -0.001619864511715556, -0.001363705294665594, -0.008925825549514977, 0.001288818969978549, -0.003423759057833929, 0.006865952001259532, -0.007977357059038938, -0.004906251181451418, 0.0054178712897638625, -0.000635655977364401, -0.010805968217509839, -0.0009591800206211956, 0.00414839151565118, 0.004356749831365357, 0.0025292142565342523, -0.004886310062610739, -0.00533339949698721, 0.004988932440370045, 0.0039942793341570726, 0.012726321129808949, 0.006741624532209581, 0.012734766582688238, -0.0057427394584760386, 0.001913869888071503, 0.003584727416816434, -0.0012345974547650403, 0.0009158280790442603, 0.0007829604054938299, 0.005446718654040151, 0.00889542000521725, -0.01317389354674467, 0.008407160191921526, -0.002357055228557339, -0.006557747620496842, 0.021697586090765116, -0.00872167429037668, -9.43891882993066e-05, -0.0042565373586291, 0.007802461759695554, -0.015030514537770724, -0.0039852789216261245, -0.00246900722357353, -0.002575271547146201, 0.010412431274616421, -0.0031841631849309116, 0.01665250038965463, -0.0057370197496100644, 0.008026230682305078, 0.007685400962625947, -0.0019532371567680382, 0.018406726563356866, -0.010876896253138545, 0.0015045831019195222, -0.0015140257936406042, 0.009824287199522, 0.0036885515126799003, 0.006150092072575338, 0.0008367906697964061, -0.010743955334070323, -0.0022750462667337616, 0.006075855175746283, -0.005365640106573081, 0.0018610222931527466, -0.016748270549435524, -0.0009166569788986076, 0.003616814804452106, -0.005154473018769033, -0.003618259664346503, -0.010725185859827336, 0.000885335367424468, -0.013118254657241115, -0.0026485599465537303, 0.002799889193991894, -0.008563425121701895, -0.0009514994453900581, 0.009388139694160007, -0.003526289582143923, -0.006777082833610823, -0.003644630516071982, -0.00713253954698423, 0.0011486746371714052, 0.001120351189206713, -0.005865316275995696, -0.01583208493921423, -0.016127113888455065, -0.003972784313542246, -0.004271379093020785, 0.0034894169492051125, -0.0050095105051797, 0.0036557689855573152, 0.004766573690634652, -0.006940412509716053, -0.008228935585738681, 0.0021515889664322683, -0.0027233902464192774, 0.0006499770290231753, -0.00362095917252863, -0.0008729585243594497, -0.00463890940890769, -0.0016383398285764815, 0.010496061385110304, -0.0012037875784051172, -0.0065496564534559725, 0.004577151592165714, 0.00015805189488734002, 0.008918013620686166, 0.001771352901747225, -0.0023203171187156, 0.0011492799216185005, -0.010284188264873099, -0.000539523002328303, -0.016729328051263984, -0.001274137736713254, -0.0001332036204585127, -0.010021788396310209, 0.002521721772106023, 0.009810173559213476, 0.004454851139304102, 0.013839608516002421, 0.0006965693002226978, 0.0026104916634492686, -0.0015678033040817127, 0.009311760192207112, -0.005628928417640977, 0.01057501918686797, -0.007661235906263291, 0.005255197442288938, -0.004045402334115876, 0.009558470547839714, -0.003199789050706106, -0.0011253533300254136, -0.0028045427002007023, -0.005548521229128737, -0.017843162037371036, -0.0038691170523595655, -0.010306445897901376, 0.002296674641389461, 0.0020977534296261744, -0.002144934523317973, -0.009698581427832394, -0.0011716317091702163, 0.004428581255641725, -0.011273355521785322, -0.010798096181502678, 0.013396542406195986, 0.0002185902779356138, -0.0019311480408050778, 0.009891435928251388, 1.606397631507922e-05, -0.0013766989792494697, 0.007565738710490243, -0.015611944196178265, -0.0041195231570940365, -0.0114578869479453, 0.0032576228231874617, -0.0010506493621878488, 7.085049004562763e-05, -0.0029564635022355434, 0.004134912641617179, 0.004301605286809966, -0.0013017947238029768, -0.014021952334787164, 0.005418268275177719, -0.008463011063082816, -0.0005828440712141436, -0.012610147742102876, -0.00794381981172682, -0.004883730796051868, -0.014765493578930712, 0.0057715270088717465, -0.002670771867005167, 0.001682220740618546, 0.007841728579760959, 0.003026235862520857, -0.002808049015202226, 0.006061117052208368, 0.001391228158205855, -0.023001914144320908, -0.006316463470362845, -0.0038556239929812557, 0.02107669471313102, -0.003825035537787236, 0.01736291582514982, -0.002168703965912406, 0.0062917218094652545, -0.004879565858518557, -0.005443054615919547, -0.00425193803281095, -0.0037771638425071774, 0.004001774137008492, 0.005345838660130643, -0.00301768265071347, 0.009156785031647742, 0.008568206537716845, 0.0036831183197440632, 0.014957625691264204, 0.0009216318556837312, 0.0030595653328057966, -0.006651663910655545, 0.007362487422925453, 0.0027352500182580126, 0.00798684267664977, -0.0029924049420887873, -0.0013238200794028466, 0.006493130238427681, -0.008112338927808976, 0.0009638286498256543, 0.002011638286836748, -0.005050808591100586, 0.001093662227478146, -0.016485239399767777, -0.011451234609777254], [0.0033448186903394478, -0.006822623153742335, -0.0019586310564364976, -0.011604896195486865, 0.011190470136368985, 0.009435735079910261, -0.011044952373110302, 0.00528815546680991, -0.01019825155047986, 0.0054746963987533535, 0.011585267536817628, 0.005387363189922454, -0.004322699290355524, 0.013680202397786214, -0.0065341655382247605, -0.01307022175431497, -0.0033528495237819976, 0.006587177218715265, 0.0008466149233379505, 0.009920663187959963, -0.011181389290214703, 0.005285457520189649, -0.004499016195227784, 0.0025440228046477134, 0.0022085350718931574, 0.004088651381715147, -0.0051023570386440585, -0.02137688614733127, 0.0035599889081513, -0.004326225780687682, -0.008590558191669496, -0.002353958467591936, 0.005565783209658789, -0.004094751361397193, 0.002515851494656492, -0.0012248333179174348, 0.012439145372171135, -0.0046657479907037305, -0.005893683442972114, -0.01277758491039215, -0.002793733029184219, -0.00017154164316577418, -0.009811516624575174, 0.014751337618558092, 0.0016289113806154155, -0.008965295008001905, -0.000756240696062447, -0.003799603577403549, 0.00928299024538703, -0.022952874691530036, 0.009068074280502502, -0.0071596477263675745, 0.006074166914628517, 0.0028317976804840862, -0.009295892784773448, -0.009149142971542162, -0.002284447110878747, -0.003391003260342256, 0.010297459265281667, -0.006345190122339125, -0.0008611425262703466, 0.006291654623843282, -0.009452931943008131, 0.01160207410349966, 0.00019505682388604477, -0.0025263193509546663, 0.0009219039688786272, -0.005876154857675767, -0.006764034339784676, 0.0007253443120588959, 0.0031777119492066405, -0.002858282723209857, -0.012548448203892231, 0.012851013536081857, -0.008906130353927589, -0.007188631412154695, 0.002054410983672622, 0.0065331633791773135, 0.0007793479172701029, -9.522383460535029e-05, -0.006783403778817785, 0.0026725623010502323, 0.006804410672178031, 0.0010687455204445452, 0.00918446670728896, 0.009530056839692354, 0.005855899803658068, 0.003098230770314906, 0.007704439236369564, 0.009593919764507262, 0.0035990072737285017, 0.00191813018223611, -0.014163457828943026, -0.01791688710213118, 0.009311569846970517, 0.003977325157645989, -0.001612507707040999, -0.011237966320202963, -0.008166570213691693, 0.015448651572107057, 0.003164829666654155, -0.0019890224940157576, 0.013096345535000501, -0.008157281233242743, 0.00622507611176643, 0.012138665621571267, 0.015145044232625197, -0.00023372912101418764, 0.00967061768526016, -0.0020964977029418667, -0.005356464420047819, 0.011201436463586074, 0.008527770198374965, 4.72860865871289e-05, -0.00546795775944386, -0.006629685491538893, 0.013680497614059917, -0.004873517471571712, -0.0009869288865407208, 0.01744443625631504, -0.005898899087629508, -0.009360373557832775, -0.004908785305428642, -0.014766845877073527, 0.00338486485435906, -0.005111061434998419, 0.005005075756971377, 0.0008715743553069829, 0.003981177720828883, -0.008007649358373056, 0.009558526474362894, 0.006902103930120571, -0.0008647045315229909, 0.01204623614526703, -0.01301887801395201, 0.0008762123328094582, 0.0004403941406850037, -0.006364602176518694, -0.006198727006504554, 0.007957684178765117, 0.0013786503466699258, 0.0005765787811569895, 5.262076865094192e-05, -0.013282279131914028, -0.009481534643843837, -0.0038562761625164006, 0.021182276002391004, 0.011673563308078798, -0.010373951533239917, -0.001656368656465077, -0.008959951166362497, -0.009439045536772769, 0.005867958337963657, -0.003695869816346937, 0.0021531530797252664, 0.009985461094176569, 0.009249842594776176, -0.010641705326070982, -0.0023143087517715514, 0.0020171071344520174, 0.0025978542236011455, -0.007441731881685188, -0.01305010898654022, 0.011187937964098796, -0.0024061108274493663, -0.000763469896444101, -0.0022047187149181213, 0.0003813149218423822, -0.008531699459706287, 0.005907381787446674, 0.005219419613381191, -0.0023629968837401228, -0.010927516363210366, 0.010863363556951323, 0.004699537112680773, -0.0018944224568464567, -0.009331128324676464, -0.010967475299154076, 0.0219345766770902, 0.0012103677821081265, 0.00546241349872172, 0.0015690823785491036, 0.011824601586278214, -0.007863508443350598, 0.0014672541944278515, -0.016543647197572283, -0.012460097137074766, 0.004314343473026414, -0.0017404383659085194, 0.0009450050994973579, -0.0024096180043165064, -0.00719265742440726, 0.008086677309574106, 0.009737799167032496, 0.002082231105170101, -0.015388051610218298, -0.004767063099726029, 0.0019419602066256968, -0.01109523611415132, 0.0004436971636696592, 0.002939571916589435, 0.0014821185310205042, -0.0025058107896482485, -0.0055880496471310305, -0.013480861553057432, -0.012851433799002391, -0.0002264333744080593, 0.006298153289906675, 0.0015093493677760105, -0.001108666810900008, -0.00020769070008421715, -0.0005332515932221748, 0.007501213274986153, -0.009937680842458791, 0.009838767014734634, 0.0006118829931046703, -0.0070673715313693975, 0.0015783311113887015, -0.0037604712708257915, 0.003708324013991176, -0.013471190603079896, 0.0046899325380530986, -0.006611729254823831, -0.020328999649222957, 0.006055633230152182, -0.0014502838587777105, 0.0024031340915501107, 0.0027281219892406196, 0.009270732315256547, -0.0023861019792736408, -0.010501168400286243, -0.009052157022268796, -0.00733857947759273, 0.003840228347754313, 0.0036543791350464386, 0.002120476042587886, 0.0009971047148998188, -5.112014153127121e-06, 0.010329882110422895, 0.006086285159154209, -0.008667279479697301, 0.00827027808093176, -0.009524815803799476, 0.000638892396741163, -0.013917561238704322, -0.018152364090616633, -0.0025131816163908457, -0.0035462627890531398, -0.010134433201365364, 0.005042196918911662, -0.011363403165062382, 0.0013416842654529499, -0.0004931857822415116, 0.010563875821668168, -0.015800424039143356, 0.0038156534182044654, 0.010643919365291032, -0.007675825894174866, -0.0017812096197952966, -0.012383047519886189, -0.008273364436602265, 0.00473556976706465, 0.010412336652479011, 0.005019101678191718, 0.00554245319429454, -0.0067324746387680936, -0.005710055698223294, -0.0001932314380441365, -0.006234323351425314, -0.003593451461455983, 0.0019656587663189557, 0.012728937853952217, 0.00015358996481330315, -0.0004245711423808001, -0.0025439175692232134, 0.003194701286666642, 0.006748855836169763, 0.0036232737185660814, -0.0165847900417454, 0.00017741048251040286, -0.020000694664904662, 0.009715778381554019, -0.0006373761193356653, 0.006222536031986438, -0.0027858077355994537, -0.0018973364498640088, 0.012456413454415583, -0.020559820390574704, 0.0037341481797289132, -0.015043746567151238, -0.0033668528139840642, -0.004442686773007821, -0.011598742557052297, -0.0033388922631758843, -0.0006204951789927242, -0.016726401130379043, 0.0027870719695011845, 0.004626565681716729, -0.000275414819326467, 0.007569265334916983, -0.006692335034362567, 0.003226251327859879, -0.0009335556708314148, -0.00020196094220842746, 0.011405463602661299, 0.005215941822755607, 0.009042054585100968, 0.019361774175123476, 0.01560870678669889, -0.0036563909848608828, 0.0003701051728283805, -0.002483070739301694, -0.002588375363832666, -0.010789582503370589, 0.005355718080276272, 0.001225970756674542, -0.0007871029619243847, -0.0010896235407108735, -0.0027176656620974487, -0.0038036053221777995, 0.013791753547083205, 0.00017495822942678794, 0.0012603268678670675, 0.009196152629581905, 0.008757652920540898, 0.008261803095557617, -0.007009429146107496, -0.004535898485233775, -0.005918061501327441, 0.01054342126781139, -0.0011545919333269873, -0.0011233846138330723, -0.012005465008164707, 0.006649454542594574, -0.008401440594081374, 0.011684633172891892, -0.0031521146212033302, -0.0049808228929254066, 0.00939300832484202, 0.0023968681716125145, 0.0074639999484582475, -0.01130566583830654, 0.0027052081788464847, 0.01125270664114573, 0.0041400420045714, 0.0022008571984930203, 0.003877744429489118, -0.00978478279608448, -0.0030850351775894443, 0.0018993897275126378, -0.0035910314658944152, 0.0011040542524795873, 0.0037452547197793875, -0.005852657773394275, 0.00719049324543782, -0.0006846086474194193, -0.0020904418339874552, 0.010549149626077298, -0.0007559236383746036, 0.015681354523276975, -0.01043829942100987, -0.011940841878347933, -0.003162886652730926, 0.006010235788538555, -0.0036774059058409412, 0.006009174402481992, 0.00621492150811396, 0.005905121238325012, 0.008883144831653445, -0.0015040645615533841, -0.0004621731120235428, -0.011326323265686722, -0.00892063093942752, 0.012796913366611373, 0.0010286566766499097, -0.0014762710407170987, -0.00041941676226490347, 0.0005368019677429787, 0.002874829669340923, 0.003040087482337102, 0.0025850071474079685, -0.0006189598678874218, -0.004156355755766091, -0.009197586905838002, -0.004358531409892244, -0.01945238594269982, 0.0052568924662559965, 0.008167136682890418, 0.009455569318085378, -0.003953602340499695, -0.008749505833760156, 0.00303410161297689, -0.004261749740820939, 0.008388883835099416, -0.003699710872091594, 0.016672718135318437, -0.009054237672675328, -0.0003731803006618022, 0.00796175172932841, 0.007126601767997161, 0.0034897701833020846, -0.0001144855180578874, 0.012618157961177079, 0.0040456782878407005, 0.002972794267539835, -0.0047788841509880066, 0.0006486639985117399, -0.0004068098436006217, 0.008038055934089027, 0.0067093189962104, 0.01174797482025132, -0.004707448575040232, 0.006032573354422601, -0.0051782436500811225, -0.01030344510232264, 0.0040239784321813915, -0.00030069385883114047, 0.0035613392383682368, -0.011751806362477218, 0.010904890433753546, 0.0073914155361454875, -0.01108378137527919, -0.006732735281751254, 0.007275140617538266, -0.009865630570059958, 0.0012267663299202745, 0.0022916161742621943, 0.003043358926550444, -0.0005513593849241212, 0.0064829564973034074, -0.00043914332785270426, 0.001526219070278534, -0.006283595418391873, -0.004290126822689201, -0.0015888277839048045, 0.00011622576614317098, 0.012092819586264372, -0.014608278736719016, -0.016706489518647345, -0.0038302859401984713, 0.013092170007838216, 0.0008388726085106748, 0.0005227003652156511, 0.005745721849674022, 0.0037609421084489484, -0.012052023954667498, -0.0004989746452919436, 0.0005426815005202127, -0.002038535859530657, 0.012608139209424536, 0.0014284085216623608, -0.009172637807256979, 0.009067338336266875, -0.00526707597926046, 0.01196581090602286, -0.0026064433293712078, 0.005960458464760892, 0.0002537923060096882, -0.008226223504241873, -0.0018950143524414772, -0.009954236999443342, 0.00039898192206488307, -0.003725972277834436, 0.010719339333455724, 0.0046599655851366165, 0.0030548743652456826, 0.003774066533702524, -0.007228912412632998, 0.0013635556656911175, 0.005905270886362166, -0.004157786891445453, -0.003867585952229182, 0.017425502690897005, 0.025750969329550434, -0.010270582982130556, -0.000537979796060305, 0.008179129560443118, -0.002138119642847429, 0.0024250611819689846, 0.003474879952302412, -0.005404715525128026, 0.0137047909401429, -0.0006611438428082894, 0.003948039172954599, 3.867330721086561e-05, -0.006648771855422933, -0.005330864719569024, -0.0022993990759365168, 0.0011479006667456171, -0.003160432874600619, 0.024716782315476294, -0.015528590606936623, 0.004008553802757458, -0.0003410238099097839, -0.005352607327554356, 0.0022600663675350964, -0.004499577223177125, 0.0059481195082736445, 0.013533116002684874, 0.013574411240462879, -0.011437727665770944, -0.002492203016825639, 0.001100647736154487, 0.003915166811683752, -0.009829323952926584, 0.002455064988382584, 0.0034030947807364054, 0.006782633594240607, 0.004198597884288806, -0.0012370025746586085, -0.0022879292919290905, -0.0035244495362832663, 0.0032122106655633823, -0.002450055305280453, 0.009743262847942002, 0.009038415774965159, -0.0012669307108633787, 0.0010825806896204784, -0.010353318895763127, 0.003788767882953587, -0.012842877098425288, 0.0018383177992891948, -0.00927531989181235, 0.008310694957810772, -0.001628896332468282, -0.00026626575346455774, -0.0015485359031804711, 0.009676515887856221, 0.0002854855274600059, -0.009150639175048405, 0.0037858695574256363, -0.0028342405493663857, -0.0013305618775647104, 0.013174804609941809, -0.004352173678531298, -0.0051186517628074345, -0.0011248607043823926, 0.010117447446199957, 0.002249405254443231, 0.0021196376714510724, -0.008499120656803543, -0.009902196758435266, 0.008089455694463793, 0.0023791454988378465, 0.012388812121960073, -0.0032682855254437563, 0.009599904329214622, -7.074725158282886e-05, -0.00024751128502742463, 0.005595310346303391, -0.007207473733164657, 0.0015658973554246519, 0.007226101945857882, -0.003713460374618843, 0.00345279358019476, -0.0010645773713491124, -0.00823221326374886, -0.005062173764295532, -0.005262399517027918, 0.005127748783480776, 0.0034526613269865716, 0.007708049286390065, 0.013170851740499992, -0.003211025575611282, 0.008920149887122008, -0.001624693168803825, -0.010457728350075069, -0.00011692177546503646, 0.010410504298360065, -0.006851286570767046, 0.007259048814590934, -0.010171120787852381, 0.011920001563968774, 0.011505416731655236, -0.012803666348835783, 0.0011270844314373544, -0.011376845986732505, -0.0007317533655076926, 0.0023244909708111014, -0.0006100155638109056, -0.0012985483459659903, -0.003419997827378404, 0.012368507095456206, -0.002749154420520937, -0.01711722674693713, 0.004415209293340529, 0.006688818629148216, 0.0027916766844920545, 0.0061128075866121396, 0.0020113795814920093, 0.008395197318816112, -0.005962149253139721, -0.004184339409435429, 0.006414759957330475, -0.00036034041287724656, -0.021695453105114445, -0.010768382745749257, 0.002004175528684362, 0.0033906213185274947, -0.01790528582762834, 0.009396111851963287, 0.010398727698220003, 0.004516272374638582, 0.005780082844233007, -0.01130807954366871, -0.009753450384825536, -0.002005178084589692, -0.009296203085563285, -0.002454583439514813, -0.009228458526537935, -0.008313103222217778, -0.003708077496279117, 0.006840780868060611, 0.010333651148992345, -0.008375788803144758, 0.022982010681135468, -0.0024040442870997556, -0.01641803451136557, -0.016723420014974132, -0.01344943832238554, 0.006283259264311205, -0.005938480157645044, 0.015931800948375756, 0.0056921409939974, 0.006640041830588982, 0.007396969881430864, 0.002604245392198476, -0.010369176854474256, 0.009152749006590688, 0.015204156278088205, -0.009974565064990528, 0.012852152502679898, -0.005938312294849293, 0.015618723548663758, 0.0037791276418982075, 0.013205196337865524, 0.006560398158235607, -0.005374482367193205, -0.013980679197296588, 0.00026542238363902394, 0.002042472589277318, 0.00018562792358650817, -0.006513201481020103, -0.005734344095567044, 0.006309823296961313, -0.0059614655325878835, 0.010732905159036523, 0.001071365559985842, 0.01108019096985569, 0.00027649438443970014, -0.0004111075617334036, 0.0049038995055340606, 0.005257368670376589, -0.004009361920566987, -0.000564758003507466, -0.007033567159173392, 0.006040367411460867, -0.015224578959395836, -0.013577756081999034, -0.00442448129876965, -0.014947866444881334, -0.0023402192781761836, 0.0074886600040674125, -0.003190329375370899, -0.01246684020719797, -0.00821031744803452, 0.004905060204603186, 0.00932406404426394, -0.005637159645827301, 0.010428954883493725, -0.0027140941579766255, 0.006929746114812092, -0.006699290082327942, 0.00507865311686479, -0.014351058683347575, 0.009341778198510934, 0.0026891333639328108, -0.0017926442915441832, 0.00719801557257344, -0.00341380633180746, 0.010727558384347807, 0.008486043043985972, -0.0011744943285564428, -0.0002932806154770528, 0.0032538848322305456, -0.008753870753993533, -0.013103827387773286, -0.005517253912281378, -0.008390294318007276, 0.01581453458261421, 0.0013639840386267805, 0.013965192534979883, -0.011132321092053619, 0.005523090362558644, 0.0007768601509957049, 0.007337387029966989, -0.004961226082245438, -0.00034751481050235695, 0.014511763665169817, -0.009634843476763825, -0.015811467102583417, -0.002717979252087167, -0.0006133228606636829, -0.000404136961696344, -0.0009913323429674486, -0.010952855336242536, 0.0007992175267809011, 0.004629793560455136, 0.006009888865768453, 0.0024627941219845973, -0.006662976704589455, -0.017924947793676368, 0.015348195222561836, -0.005340688527358898, -0.0023752085384782704, 0.0030856758286105126, -0.00325348268807263, 0.002853577251839697, -0.002703680479634212, 0.0017447861663669245, -0.0028457490503494367, -0.0053918317237563575, -0.005114890264102312, -0.003962204329718379, -0.005197839370900561, -0.008625673865838745, 0.0015508158642238365, 0.004527789178508318, 0.00044594081740379355, 0.00028022669403527474, 0.004221406938821207, 0.004694267521681842, -0.005867086852209919, -0.00444524779616772, -0.0006445710912625545, -3.894911738175019e-05, 0.0042797360027449355, -0.004893316761685185, 0.010849423745818328, -0.0063939707442143235, -0.023081235694241913, 0.015527125464559113, -0.0005594352685572302, -0.0011962377611358993, 0.004935678398173408, 0.002165616014393766, -0.014567312813461526, -0.0033933664995143735, -0.019901322169169303, -0.01074039202942044, 0.0037652266535009855, 0.002793876521800381, 0.011832780674861923, -0.006086498767575673, -0.0032312741525635956, 0.004566024456051407, -0.01160364762337323, -0.007432695748968876, 0.010347830339892023, -0.0030911080703737675, -0.009545857329644905, 0.0049369192627062375, 0.005423557763268356, -0.0019188037564119027, 0.01124663531495543, 0.004211110076440122, -0.0009408637878427865, 0.0018039524385410812, 0.010048964910603041, -0.00530435546907084, -0.014444852216747718, -0.004336866070669825, 0.0022621820667079215, 0.00984034384024072, 0.020394706590974518, 0.003610472940182328, 0.001396303016369146, 0.01519787465206715, -0.01713763638013569, 0.0012442830546792536, 0.015681740649972426, 0.0026731360108339184, 0.005693060381495193, 0.003962895625053974], [-0.006995552718731872, 0.00458613979519289, -0.009946844204828532, 0.019619054073451003, -0.0009311149638624643, 0.0028718605427499127, 0.00796705927858182, 0.017252865781028963, -0.027372221996627456, 0.010379977655135288, -0.01224703260313401, -0.011300582908242828, 0.012952819978134635, -0.0021848934494176466, 0.007641270073989124, 0.006224235911485262, 0.006447424299672364, 0.004540243611769377, -0.02346961430836819, 0.010125667823683297, 0.004580491277289497, 0.0016719405892214603, 0.0030898703724256925, 0.0025324378030838527, -0.006515384890520039, -0.009427882486382124, -0.00206384067292324, -0.00648306827472168, 0.0006229626972372065, -0.0014717271788329668, -0.0070683695120221405, 0.00019839342536763022, -0.007403707829962691, 0.01224358674843659, 0.004289586287366236, -0.003926287770196334, 0.020458221715571098, 0.0042436205937736865, -0.008228954945124642, 0.005488907845461832, 0.009973158634631676, 0.027419781788607687, 0.0031437583277126703, 0.0012715865824602735, 0.023616261198220568, 0.014379451960239223, 0.010479269902719149, 0.01624894089405158, 0.020267232611498657, 0.015130803678883796, 0.005795133776053562, 0.00846165570242555, -0.005583357102729843, 0.004445412286112039, -0.0033461313412695413, -0.00532079244472498, -0.003613201329029942, -0.00037156112873869485, -0.018333361701192773, -0.007522122100936661, 0.004178918745680762, 0.0028662900692318295, 0.004409107149323738, 0.008090673814478295, 0.02935642786178631, -0.0008991659521188314, 0.006067558401347614, 0.011597073781996326, 0.02232962050254664, -0.015698215133914627, 0.024626775379741506, 0.02731094157487495, 0.05720590499302527, 0.09676051605006887, 0.11053047942242883, 0.05480936671126513, 0.02447164581988292, 0.011168979416584728, 0.026470687239614037, 0.02159349902992071, 0.024408797215583512, 0.002418057996591041, 0.003184016701168871, 0.005939294808181631, 0.0013466830088123744, 0.011569739776290484, -0.0053489020435793285, 0.015137871099488158, 0.0017411267088505156, -0.003764138335602566, 0.00701838684704205, -0.01235521090356742, -0.02301412422468801, -0.012028618533322488, -0.05344351190118304, -0.08371374159432951, -0.13802394354003458, -0.08177461271045948, -0.13130311556009605, -0.04495772665222326, -0.03717843605371991, -0.056559830708052906, 0.12094487514540278, 0.22244528138813904, 0.11993900163546371, 0.10398898392260457, 0.05698035198237421, 0.04973150921773636, 0.028265974668249, 0.028909705919530914, -0.013942120568176735, 0.0005746005793272567, 0.002100850495055283, 0.005188683347431532, -0.0021882532362109313, -0.0044888137810228206, -0.009611747896309681, -0.059030517250220425, -0.08968476487772228, -0.15396978208693435, -0.18416019494825836, -0.10667109119269126, -0.054519011537349886, -0.045451084445684915, -0.023783261333766133, -0.09943602319985821, -0.11808766524750977, -0.06244644459484952, 0.030035287588742726, 0.02233020635338548, -0.008470544155416876, 0.035834056023080006, -0.0011657895274419033, 0.09282965705091248, 0.0920351320112206, 0.0955975754097347, 0.09394059328048411, 0.06498443508744267, 0.037535645738480665, -0.020145492207983035, 0.00022819094728043627, -0.004749059519010785, -0.00483710698369868, -0.029048194984302445, -0.08231695522850015, -0.14846266172266542, -0.23696637500836054, -0.2602680636581198, -0.09803076390937922, 0.04224497035786167, 0.044606557327781064, 0.02185676250934668, -0.01923147223188716, -0.07814866920285789, -0.016193142406260384, -0.07717630179133245, 0.0433590010006082, 0.09039615938670328, 0.06282675157601997, 0.006021998591660988, 0.14420404791443314, 0.0855819914331464, 0.16882012077748904, 0.1376149082409701, 0.10395042789412343, 0.05752058144342445, 0.002692110239436408, 0.009071074698926967, 0.002124671864849693, 0.00035453343044450873, 0.017158772276978023, -0.044685734876158414, -0.09179608338415907, -0.14770563961161864, -0.23378586203213939, -0.05685900468040387, 0.05208448979086487, -0.10577976775052673, 0.0074778629068366275, -0.028657853375205686, 0.05144872935184588, -0.22184957729301077, -0.02097840879569526, 0.029551042277430918, 0.08985730612205481, 0.14218743898990208, 0.13657304214814922, 0.2257428153012843, 0.17783147390540782, 0.1734930077553357, 0.17672222445954167, 0.11667216744873843, 0.19181844558753042, 0.11702975908034774, 0.033870742669658845, -0.003142069954460665, 0.009999248897463415, 0.010055130566762225, 0.0020921653069906013, -0.07215083252829485, -0.1445701494871545, -0.11380360884315177, -0.16241304142292287, -0.02176128705668938, 0.17439936718280344, 0.04362908188105394, 0.04662527520284549, 0.007533695742746054, -0.08722917036976731, -0.13682398748117436, 0.09233629646144383, 0.1471707182104022, 0.2275013549304096, 0.19740151182792315, 0.37338315426683516, 0.18451785523557532, 0.2703018245614804, 0.29555613150288934, 0.1794912239121449, 0.1031434313286662, 0.16026673039864628, 0.03987964499475117, 0.01686963155690605, -0.0033648757388793026, 0.00043158172364362365, -0.010614269715725098, 0.009872692950505687, -0.04176704507064782, -0.14616244752236215, -0.10529130467158945, -0.0659781489735152, -0.04878220291671222, -0.007937571600808432, -0.07780412052077126, -0.10565701258985274, 0.14916822380069197, 0.03342586204235544, -0.015334966227965423, -0.023683845525177844, -0.03705600255993801, 0.12711344588810003, 0.09038687033531018, 0.12645186322613802, 0.1408833612238366, 0.11901998423750841, 0.07245788170849714, -0.05161511090991712, 0.11808449393767607, 0.01714105032162756, -0.0693212746892971, -0.018574971134607224, -0.007063233040606794, 0.0034689259512050417, 4.0886016450179836e-05, -0.005569111802828583, -0.03948699531478216, -0.13866955306351897, -0.1283315891118686, -0.046881268087769996, -0.06232960973986346, -0.027099599310908256, -0.0448333663833746, 0.00840706313584306, 0.06475307515926389, 0.04794332326246228, -0.15152420125653773, -0.41510578933445186, -0.45625681736048546, -0.44997061223708074, -0.49032929774710543, -0.4643250796842338, -0.39092827380344636, -0.32232636227735695, -0.3332615133478205, -0.27613921078023734, -0.2353595899727633, -0.04921276232139004, -0.06503834927631282, -0.008995956354780158, -0.005675049283014421, 0.009749684548746028, -0.0035102359675776387, 0.009595515198230434, -0.03320353252897279, -0.04520236035476541, -0.040251265599255556, -0.004007255137620077, 0.08980280876113214, 0.06708103957294696, 0.03176661785932009, 0.037138515580029355, -0.014260462866971737, 0.09115832064870719, -0.12474863978816965, -0.35422843985247404, -0.3496239316110044, -0.5773921542368614, -0.7838360454561507, -0.8081794347064372, -0.7598309458367933, -0.5868796180285251, -0.40460947293479455, -0.33605237213128564, -0.3367788939126831, -0.11834559824661907, -0.035932262083723666, 0.006652925622307315, -0.000786197764764774, 0.0037899695505809244, 0.002849494680618496, -0.0024836630923846764, -0.058023366407727345, -0.031351119223684235, -0.057413233915369614, 0.09403229867697174, 0.053231848678714284, 0.01174980671504179, 0.0019453991740533848, 0.035478148332480815, 0.005623585745974262, -0.02082570369785932, 0.023361230301027887, -0.04835270391865832, 0.021174370865983106, 0.06995927336029274, -0.1000992926173681, -0.2679375072133469, -0.403450955152721, -0.5013385599468521, -0.37374844622784525, -0.37886793285373666, -0.2622595787237888, -0.17847556900161646, -0.05016634719458224, -0.004244709856187748, 0.001629381435589647, -0.0028006060474452333, 0.004604438015807326, -0.004225116950638409, -0.04519449231108167, 0.01676489481811, -0.0251106955271726, 0.0679892109112522, -0.07879732882837295, 0.13495027871556947, 0.014932143007112939, 0.06722297843911287, 0.1666913548537504, 0.009829974551847757, 0.08366945110661925, -0.03845722293810648, -0.014393120930335943, -0.05478072848275989, 0.0029593714113575666, 0.05511472395793319, -0.0483068845406224, -0.025167553183859943, -0.14970707106269665, -0.21605804062033745, -0.11610713219255976, -0.111449022321955, -0.05993776985636344, 0.018427767536835702, -0.00238932271660083, -0.009493625289452669, -0.001993501770718319, 0.010311206694394266, -0.0334846274063652, 0.01722680071640749, 0.008728973306621821, 0.06220853324812393, 0.08706055734129106, 0.023749527228074035, -0.07274403021620286, -0.10759155775918114, 0.036664096092121075, 0.12669233026338547, 0.12133067979952027, -0.05180769359047169, -0.03848808918453146, -0.06966517812008981, -0.01737536200236099, -0.10166249434960385, 0.07277634528455038, 0.045154173879428855, -0.11226561867234276, -0.05697500139224002, 0.008234886789535371, -0.021964221638684597, -0.03699187371048998, -0.012737704738253757, -0.0065193373208637375, 0.010493275739628277, -0.016025523440593346, -0.0017071412770321758, -0.04386848204128266, -0.013646396447301801, -0.034381006408489, 0.06175014174858516, 0.1293742456153234, 0.03727841317411599, -0.03557095734527896, 0.1086607346528762, 0.055473961761560206, 0.13720864474952732, -0.04327066365789208, -0.003934432183652151, -0.021182199914643596, 0.021938783624177106, -0.10515856593245106, 0.15468387705072917, 0.10252510677906393, 0.21147675846977657, -0.07763201145755855, -0.048428599258822744, 0.0797499450627575, 0.059558183800615165, -0.05415765087230139, 0.00028666683964215646, -0.0027182854697190614, -0.003436437639109853, -0.0169064541107516, -0.03296760009849198, -0.05246062322937634, -0.05471711291335622, -0.005538477487598419, -0.031983758476740724, -0.03560235469441706, 0.0662284628230628, 0.045276011647347146, 0.13068928244092787, -0.1512608926458543, 0.14464753504512676, -0.03203985027451508, -0.09965459270426807, -0.05871275424567851, -0.01088984190410697, 0.19122873179252842, 0.09420186446004875, 0.013245185249058164, 0.08994432132083924, 0.0765032967542336, -0.12010999193072339, 0.06024452085780571, 0.07269580470300982, 0.021198156138106387, -0.029638828633307447, -0.007429356079149189, -0.003052279530043599, -0.006726190997131096, -0.04261881850589557, -0.040150358522657, -0.11036001001180476, -0.14411566371801734, -0.11942188748259615, -0.029818374661417138, 0.05135684612069807, -0.11114026524031488, 0.06432463266677367, 0.015688373015733843, 0.02918909406882508, -0.16332317283876907, 0.03166186969437493, 0.18780177937316975, -0.08230369429599778, 0.038900378109091596, -0.08170719892919602, 0.025792875815502683, -0.02467297210059517, 0.042611796444936165, -0.04256038453403498, -0.014170716630921237, 0.04362463266931382, -0.02608786358318825, -0.040482967032733845, -0.003052868511089744, 0.0018439060143763933, -0.0018000292016958064, -0.04971748193550101, -0.024070469815858874, -0.05528154664783411, -0.08225807600599208, 0.03544964119031392, -0.013441540126691805, 0.019746227474317663, -0.07529902288327771, 0.13195530157256405, 0.07691751959975886, 0.08959330843897824, -0.05441379784568619, -0.017535503232303698, 0.1496276132954407, -0.1149262174261992, -0.011260933835667892, 0.19134701646670915, 0.043103582972745004, 0.05385087559434469, 0.053753063551216056, -0.00523787947751099, -0.009902589397134728, 0.05815138983697979, -0.006118243014095015, -0.015406115631554576, -0.002078243120504363, 0.013800384047730015, -0.008836321439813255, -0.016400633806743913, -0.020441926478669183, 0.03981286172982019, -0.0004848878914250167, 0.06524983535044719, 0.03461989177536494, -0.17051441298644127, 0.004435076258510998, 0.05061074842030417, -0.023103744263241393, -0.038985990764269694, -0.03280105382409086, 0.005590920794628718, 0.03015945166949601, 0.09613375974957604, 0.08199569261573159, 0.033535869669920323, 0.057805567158828, 0.11916511319397104, 0.0006768218582951902, -0.11191961077934638, 0.03634804026355501, 0.022118150898385903, 0.008029472050560559, -0.009443029244023838, -0.009935575959519343, 0.005509777058381865, -0.007045357296544636, 0.030381849191595114, 0.00832121147353601, 0.054679463059912524, 0.05024378355941773, -0.009705392003133603, -0.011930834156121744, -0.04359415897529616, -0.047358545355132634, -0.10223269511839732, 0.0845199757870007, 0.10190882300803508, 0.0700849370355829, 0.09124523213619, 0.004775826912395018, -0.004555082686340815, 0.06296563212071066, 0.07455053769154629, -0.07264904837757308, -0.05931490719615535, -0.00318786781642804, -0.048863376443381526, 0.030634726818746502, 0.09509950494392272, -0.010706224498895096, -0.022451851824027508, 0.008464285797470196, -0.0015341721644737912, 0.002423557091128224, 0.012617644984680244, 0.0013898260923662848, 0.08492350742598323, 0.11018594234316574, -0.009801672541632406, -0.09022706385916575, 0.037644344284306484, 0.04978506451460761, -0.006789923477390032, 0.08266196658833982, -0.04233785492011008, 0.04254489107892692, -0.08756841291514916, 0.09487986444798968, -0.07032816083948215, 0.04254230348320111, -0.1278588546004998, 0.0021803572287515307, -0.015793802981653803, 0.06501808747906282, 0.09605285307674638, 0.11112747628662784, 0.09671546744787789, 0.022181030949456046, -0.015292875661793803, -0.008663914492161749, 0.0033955250948594505, 0.005948954581086034, -0.00649158177596481, 0.011087825373308434, 0.12211983674150266, 0.154390235054928, 0.0016098556584754752, 0.1127936559093096, 0.017344637683721062, -0.014348451740340877, 0.01385568336132504, 0.1346982183781793, 0.09858295263024078, 0.15527125480690776, 0.09156319585979963, 0.021059402949170015, -0.14123884901591616, 0.057557276381620136, 0.10848032223583041, 0.014745765231126605, 0.08388422488860718, 0.13137972421490618, 0.13104010606516045, 0.09371998277434898, 0.0892429798670288, 0.015569246301324505, 0.003125636447341237, -0.0074155203501301845, 0.0011773544627872443, -0.0007890016636842045, 0.0021256778207724325, 0.023446722368272846, 0.06412002773797723, -0.043280111087776116, -0.08317543086122405, -0.021861452131426876, 0.047016996895249796, -0.09066600027406184, 0.010143691887614185, 0.050165631699385906, 0.19182158731268484, -0.09558269932429646, 0.07084631378611968, 0.15216734937244983, -0.04202068575146321, 0.0007008772983816186, 0.0008637185193546554, -0.02240512545540105, 0.029600734748896032, -0.02957714648216028, 0.08384799224919369, 0.12400491580061929, -0.002709861208465124, 0.020057075890907983, -0.007102223938753355, 0.007745563510551169, -0.00826528497450074, -0.006854342988400238, -0.011460740411266733, -0.005117537154471642, 0.05395856055067228, 0.1254075824824393, 0.04578236829911158, -0.0710101552306558, 0.06911056357397798, -0.055586183806108816, 0.0684846640661248, 0.03518555312900192, 0.008740287542078777, 0.06400107608954511, 0.04870467093593518, 0.11532864375006224, -0.0024564274853560793, -0.0848221808119671, -0.0768031630714594, -0.009999808689158108, 0.12772552875205676, 0.00897769978807739, 0.09115142036359451, 0.07974537819889925, 0.018159215522353143, 0.020123338929173323, 0.0061218809558006545, 0.0018407497065987973, -0.003962077300948297, 0.025732480942254186, -0.005711129464801264, 0.006338135298804811, -0.026111249079523013, 0.03548259724501927, 0.046775280001658814, 0.0197827278467204, -0.005501283867135274, -0.032467133126415686, 0.00826809324045735, 0.011882016182918391, 0.08518395373190384, 0.09308575234893923, 0.050998012219959754, 0.01379934300887724, -0.08672698078354571, -0.031207232565556905, 0.1019346872462158, 0.11607943624431187, 0.1766332761852632, 0.022756645746573673, 0.06546249663811816, 0.03472460754865749, 0.02139907812988044, 0.01000289665849633, -0.00693970039127421, -0.0024886751242729852, -0.009214014389012287, -0.0019181040998314943, -1.8694657337094913e-05, -0.004167045554820275, -0.02053505084775128, -0.044749970155531324, -0.021835396592332416, -0.04974102523688571, -0.06662742320905854, -0.013847276895554744, -0.09477351820812921, -0.06173538331576143, 0.0871976405011394, 0.03604879145111077, 0.0005121507909383572, 0.03578417859924192, 0.03675775266374678, 0.08745426122649552, 0.1295561708487494, 0.12942178097541443, 0.030770521769823193, 0.023383744430258594, 0.04861349114257576, 0.041403780721670905, 0.027241235971777304, 0.0014608537346359654, -0.017324923371579825, -0.00872171336579574, 0.0001878200556357682, 0.0035884466761768345, 0.0018478594975175242, -0.007386620418336248, 0.0013327244803533617, -0.003431890866335266, -0.010264375913206942, -0.01692517460952612, -0.0002716994294449289, 0.009815328071676151, -0.004249874259586387, -0.016202110241643405, -0.016816886938047147, -0.00647933158710123, 0.005469983628557793, 0.02866070764382396, 0.0584544434778766, 0.033112260187132085, 0.01882262339977254, 0.027035905664999835, -0.006015326658768097, 0.016784933058947172, 0.00844074828847006, 0.0033360962269866085, 0.0002576839787692957, -0.004733991351814537, 0.009911401120961715, 0.0035302138663616633, 0.0007580259101725668, 0.012477654525105894, -0.005470334071214344, -0.005264780123461886, -0.000946397251267571, -0.009433458540787185, 0.0007720646163809246, -0.004178995816620335, -0.008523733059343602, -0.004827843834464559, 0.0006021650236631174, 0.007478624093214792, 0.0007994429227107329, 0.013345725484664657, 0.00412384318944188, -0.0011893490417174669, -0.001535367677773365, 0.0032933318036512164, -0.007571998897630449, 0.0018623393560399356, -0.011058470394593992, -0.012712743279832038, 0.001701656697407687, -0.005837468308802307, 0.0006648878293921544, 0.009609040767791234, -0.0008784055056908231, -0.004042617551436007], [0.0054913691989980536, 0.003142852931543003, -0.012551718657340418, -0.0027888813495743144, 0.01125252148173754, 0.00962542910429803, 0.0004213009071892929, -0.009386363570194055, 0.000574625607035954, -0.007424759198791162, -0.0033276177172745034, 0.008447844051445231, -0.009308056793940042, 0.006495264601988787, 8.804203365704131e-06, 0.0041649418367705636, 0.0029197138318889228, -0.010683090400913886, 0.004143486612808765, -0.01091294341310038, 0.0009234099436072494, -0.004736846045512339, -0.009595518865434194, 0.004072919883482341, -0.004113136225107955, -0.002787852370805336, 0.006152533238639694, 0.017471854718574223, 0.006593086696848977, -0.0018376482263622999, -0.0032010583068671247, 0.01913915349628694, -0.011921180590744223, -0.002098015327909343, -0.005172812094410725, -0.005024558451201702, 0.005696292359477315, -0.0004217575753953536, -0.002399181376835719, 0.0018018646604207537, -0.006543388575115379, 0.006505422116927736, 0.004034761158555023, -0.011026982444916967, -0.012842813584665798, 0.011267565457973402, -0.00518707248834445, 0.008215484339565442, 0.009601618927766618, -0.0030065617248194623, 0.005540750491080702, -0.009967842138420599, 0.0015117157145303217, 0.0032295166342342385, -0.0013349083296959666, -0.006871329136659903, -0.0011975074474348936, -0.0035552598457451786, 0.001152148712142766, 0.00013796166226955008, 0.0013906739195402931, 0.008230643554224508, -0.01405677778832549, 0.016323466280004497, -0.012589247409493761, -0.00036181281257606995, 0.007297542589664287, -0.0014792805836847769, 0.0011898634328109795, 0.017703302285909682, 0.010819659589539565, -0.013936507808467734, -0.00464599684792525, -0.0019376817850054336, -0.0011494444406934762, 0.005609910985520422, -0.00795710561692766, -6.115018615382956e-05, -0.003113709687252395, -0.0060860508184101434, -0.013932443382243679, -0.0075110455409228205, -0.004255212257569125, -0.016672423841207325, 0.005098296653607494, 0.010011113426224261, -0.008443031044874826, -0.005218153401165951, 0.015893137154737877, 0.004324179424722224, -0.01401898521131174, 0.003153154361082474, 0.011395565738864293, 0.0020657693338365273, -0.003046895432432595, 0.0023209692759032594, -0.0007622160480276585, 0.011287993281458767, -0.003299476001228156, -0.006130754205850771, -0.010180525144263151, 0.005647831009759874, 0.0006792921271528858, 0.00028549434541123104, -0.0065948058417005925, -0.007145131156986772, 0.003370325589264581, 0.01079133654716416, -0.0021826708571714734, 0.005083146292056962, 0.002014289624337259, -0.0017612524563360408, -0.015984410206553813, 0.0024200035334425002, -0.005628981084705478, -0.006288717635291897, 0.0021383070182762554, -0.010666161941029807, -0.02737424311281959, -0.011122797628449919, -0.002157995846824103, -0.011808267202031092, 0.004684368135259815, 0.004008122570397622, 0.005350936487103251, -0.013861929016970169, -0.003866850654405014, -0.009302590622735382, -0.00041570099300476324, -0.012343845101745039, 0.003815384999221241, 0.0051516925149233525, -0.009565528613011517, -0.007305918709546692, 0.007881769299307268, 0.009182805983020634, -0.02455692008599298, 0.004958237216409372, -0.004127420268469383, -0.00421926096735077, 0.00925559943844722, -0.011300164636028037, 0.011789081025511749, -0.0030239140993532036, 0.010674993312331219, 0.015399981410346425, 0.012243695869315379, -0.004237911224144595, -0.010262021196220009, -0.0008480895090999888, 0.007124609149867905, 0.0014121008715675843, -7.308398394589166e-05, -0.0072773357710149604, -0.017799230581898206, 0.007445989346937903, 0.0006427996214345256, 0.0031526664039969246, 0.0002980453896809388, -0.008836975599982666, 0.0042345431685729094, 0.020278771944295837, -0.005355615457632371, -0.007916620174511519, -0.017145756357348496, 0.0010147968205646116, 0.00282254490853679, 0.0035818894032217403, -0.013564459917661111, 0.013251228883366373, 0.00745032306518512, -0.00861523763375292, -0.00357298728883578, 0.014358430344759116, -0.0078115031380094615, 0.0031550241061766033, -0.0018998599766386465, -0.0015302045355390463, -0.011821297146219371, 0.0013747811256601596, -0.0035657595965395005, 0.012335564943834127, -0.006021458217204628, 0.0017063601236180104, -0.006746491374739015, 0.0030750194677653126, -0.0030083749893405265, 0.0017385312563991575, -0.018902326826022633, 0.01499100144742657, -0.0007967225485784981, -0.005098271448841727, 0.00806758233881496, -0.02195372645041049, 0.004419114691056747, 0.00925558144452325, 0.010420924083402368, 0.00017954827978818142, -0.006066264777120279, -0.005224991412615529, 0.018265015076761232, 0.0005770657801531398, -0.013102513008154614, 0.0024866580751903115, -0.009129943498744787, 0.01456529298513315, -0.0035272476343861502, 0.0005951590170006585, -0.0010499372092202558, 0.00022527081450775084, -0.0004362631594276398, 0.006758612399612473, 0.014786229461057798, -0.0009910700133209762, -0.010140509450894095, 0.0001379185840091344, -0.00793612884088156, -0.0035609581215922436, -0.007505706048988705, 0.005784902244354745, 0.002712105422163252, 0.0009674882554157177, -0.0053807441774109035, -0.0024484939029923354, 0.002572986546974874, 0.0047653865834757884, -0.001974778882233044, 0.0006154776828132386, 0.006980422003168054, 0.0012897441605261935, 0.011621687012430496, -0.006295585978172028, -9.395407752703663e-05, -0.011681286057623374, -0.011648597350404081, 0.0037876042899918335, 0.0019968905126382798, -0.0023542987871316068, 0.015394244154835451, -0.006044752843894737, 0.008970193889228515, -0.013160470931305996, -0.0014669623021866516, -0.0092870837251499, 0.005265808045429168, 0.014436991186243761, 0.0066491668020528276, -0.005394003749393629, 0.0017614832092381022, 0.014087185734797808, -0.00447589376739979, -0.004185398730689993, -0.008851311586073508, 0.00033656238907365664, -0.005843196291877009, -0.004692260166627437, 0.005626776672031392, 0.0010647494628348432, 0.004057247239438168, -0.006696145826410824, 0.004534252135449802, 0.01616774916324144, -0.022728320210311372, 0.017986321820773504, -0.0009243773341469812, 0.010927040633321177, 0.005555454297635023, 0.005731776670136536, -0.010788101422187554, 0.009673033621326316, 0.015269700193021787, 0.015124280618359881, 0.0061276031235718426, 0.005649199411938777, 0.009222771752229814, 0.00596995972717734, 0.003738199581889827, -0.004642168557042507, 6.225006655572577e-05, -0.0007372118381497908, -0.005148879388159524, -0.003973191014801451, 0.0023124162162008136, 0.010023021799319966, -0.013616255071008247, -0.02123679160534017, 0.003399723020377838, 0.007830950373207022, 0.005593287081159433, -0.0017025190354010272, 0.005151519839229269, -0.0009642914815782755, -0.011635297835252896, 0.010514151866161538, 0.017858593413989786, -0.01595857381145255, -0.002657518539053124, 0.008527033812023428, 0.007511331248152905, -0.0012091337633503704, -0.011087189456343223, 0.005367792950144878, 0.002326715929764666, 0.005281678273252612, -0.012011212712582115, -0.0011875612069114163, 0.012834386105092164, -0.006873163403887336, -0.0030845338306291995, 0.003544211224003922, 0.0009712974726053032, 0.01014608751400789, 0.0018145427894352643, 0.009070219113176054, 8.917941410507003e-05, -0.0015184941486322543, 0.005337236990141286, 0.0004005673367576485, 0.002800205375149842, -0.010216543909220402, -0.0009027422594428471, -0.011508595226171281, 0.01579423984212538, -0.014004703230777144, -0.009940880369571144, -0.005870924498870404, -0.0002225454234745565, 0.0009131609674108322, -0.0065459150948862874, 0.0004369579349765502, -0.007185323387040338, 0.00755131299077119, 0.00807288791368692, 0.0053624229739536846, -0.0007848860934466113, 0.006714142466673019, 0.0011895897835985391, 0.006999504672021701, 0.0021721758053354673, 0.009268378529378833, -0.0019498799771057516, -0.005071939074497773, -0.010271186690859295, 4.335886198491971e-05, -0.005697370637900484, -0.002729960774789572, -0.008769708769245526, 0.007489656274499771, 0.005231027664608485, -0.007590411259535312, 0.032733971706683025, 5.421429228566794e-05, 0.006536543139125926, 0.008827903075133571, -0.003734529051696542, 0.013096926375263673, -0.001572632744640507, -0.007846335430254887, 0.013090221335222687, -0.018274456322263016, 0.0165890870286454, 0.009302305901602541, -0.01345573994396833, 0.00378573922127848, -0.0013092724697393871, 0.004317544255608816, -0.00034240167562953023, -0.008592810457902254, 0.01566080741168616, 0.0014881256394635124, -0.0036944856974943725, 0.012523439608801184, 0.012383920737266827, -0.005911744504561646, 0.0007206033176963558, -0.004711124116404132, -0.01432948793017715, 0.0021867993518016413, -0.015015371832902765, 0.003315753879598663, -0.01502297067558944, 0.003503238563885164, -0.004530920320043364, -0.0028775871608865003, -0.01005602741247731, 0.006928634122181207, -0.0068321411143417304, 0.021580878477924458, 0.014928077284551346, -0.0014038516492936967, 0.011964757109796881, 0.007482535195562343, -0.0022587772682351047, -0.0011674572670365385, -0.0012352669170323683, 0.01107919052037622, 0.003974182418678845, 0.001772649224659346, -0.006204696521283111, -0.009573861409943183, 0.010374300848144212, 0.007849467714096971, -0.02099942499838077, -0.005172622110428692, 0.0043254667305957575, -0.0033156834973177445, 0.015251336930728913, -0.013444526074280143, 0.014247140038340857, 0.004665387822224631, -0.0063800742401041695, -0.002337345243501839, 0.0017901579286952124, -0.0015476330637449397, 0.0035596234709055733, -0.004484954177340053, -0.00162852799499644, 0.007498321921929892, 0.01603205904026825, 0.0017543198493121688, -0.005704919822701835, -0.0037193788621682805, 0.0010186012009756303, -0.00034881596249391816, -0.006259242020579709, 0.00173863490557356, 0.0067267597058085675, -0.003614146555454187, 9.550792166166557e-05, 0.006998445941279527, 0.0014022910158600003, -0.0017742577039406451, 0.001714754454299344, 0.00705652379733051, -0.0003105258942513312, 0.006323219018127068, 0.005312382233100928, -0.008486532211444875, -0.0007641123664402413, -0.006014763214500848, -0.011345467063952406, -0.011811971532253787, 0.008014382540901314, -0.0055861543736802416, 0.004420342920258162, 0.004215320478068302, 0.01144144014370244, 0.002439141626232386, 0.018922660758162048, -0.01085636873333849, -0.0036528026319637527, -0.006009905042213218, -0.004984800886890392, -0.006653874282310828, 0.009703164189907585, 0.005536552918697059, -0.02154049783801779, 0.0036206261627922333, -0.010730682207260216, 0.0002264793573325717, -0.007376282541427203, 0.002977442687457939, 0.004989533910448089, -0.008698577654504134, -0.0038727140105996646, -6.571249809374847e-05, -0.0005958866807667407, 0.00020440725176550684, 0.0010018751073814839, 0.007749131378381954, -0.004276471865904272, 0.009712225758310069, -0.002183462928302457, 0.02327839061759777, -0.011414531263105559, -0.005866752548188433, 0.006555092979934934, -0.00928342156298343, 0.013014060500569392, -0.0021052235684678304, 0.012755608629361767, -0.009501619617125593, 0.003222739371186046, 0.0036167017704220876, -0.005721445628126439, -0.01131494795913393, -0.005216035756027284, 0.011331063218121308, -0.005976092947581204, 0.018633438560234254, -0.007895220532305106, 0.003988929452074705, -0.005325289707347878, -0.010029629886260744, 0.00043501734460509023, 0.003969468532046904, 0.0055835559841108185, 0.00446729338801429, -0.003963251779326514, 0.006354339431282796, -0.00935673128101555, 4.7806440053231684e-05, -0.010083685990372288, 0.0029909656616730457, -0.00010355113763052407, -0.012540183334807236, 0.00040631475373060794, -0.003041796423456367, -0.005729734479472106, -0.003936374191773513, -0.01653846856942936, 0.012975971963830374, 0.004975012309099875, -0.0017641923456105369, 0.0028924935002377548, 0.01204079921154701, -0.012604110280184858, 0.014624259124842786, -0.013187086686162856, -0.010414032701500127, -0.00018523768617672795, -0.011306306336997826, 0.007527081028983819, -0.007571298120172379, 0.012327555154168073, 0.010834266570112588, -0.001166436525401852, -0.002498407575433198, 0.015439568367324928, -0.006611808757669557, 0.014407740882247534, 0.005695373959079952, 0.0034726362077375466, 0.0019704798808664616, 0.0031807215357336697, 0.0063244211503925285, -0.001851276479503087, 0.0009506469789985768, -0.008009229160579374, -0.0038649971461048355, -0.0056053360244166595, -0.000870977857522038, -0.0018638333692546718, -0.0015253009424491704, 0.0025160260012123464, 0.0030047348563226363, -0.005517901102373328, -0.001447091631691535, -0.010747880285414483, 0.0003972178927361215, -0.008114228816463473, -0.017739709712283197, -0.0027552315916422963, 0.0021015517930577463, 0.007636019278189101, -0.003228357727153955, 0.008133511153295433, 0.016648088905647625, -5.905944958502033e-05, 0.0010216731653328902, 0.012085078043140752, -0.01021584534946091, -0.010297417209561123, -0.0025520315586640015, 0.0005255086651784213, -0.010361392506552903, -0.011986093808355837, 0.011120423697066862, -0.0019632559050126223, -0.002237992995636724, -0.000736862582837251, -0.003065553568528544, -0.006196041419978906, 0.014091389848232137, 0.006102134248395765, 0.0013692542661759605, -0.0015892844056918153, -0.003805586649949981, 0.007827890653296409, -0.007997886270439998, -0.00990039248696524, 0.004916268641285634, -0.001980085708942679, 0.006233154463475328, -0.002018731338696346, -0.0050917946144506225, -0.0131068239621276, -0.004483747955486139, 8.356495065025925e-05, -0.0023980714260017242, -0.009993047156763706, 0.005882027879603264, 0.004209327543390107, 0.00345093567607779, 0.002832703153472961, -0.005257244354039608, -0.0032474991215753783, 0.01080884201847615, 0.0022996500518794815, 0.01688644615060435, -0.012290582972448304, 0.009038421507532389, -0.006263960690874231, -0.0017226515674906703, 0.0004372206726484182, -0.0033292552272015667, -0.004143861469570943, -0.0030027553580734855, 0.006079031166315113, -0.014445707670757466, 0.013073481655563504, -0.001333579700090332, -0.0009355449387725065, 0.0073200090677494846, -0.0025345710952859647, -0.0028914951261268737, 0.01173937395669022, -0.0037801310773584126, 0.014289817814195738, -0.011080502904329007, -0.00010279257652845281, -0.011056316147099522, 0.011202704563407693, 0.00725409390117047, 0.016580578613046855, -0.003472723980658008, 0.004082606036490333, -0.006374095911948619, -0.00859476283977091, -0.004465510585397665, 0.0010057987030217418, -0.010173117754273328, -0.009020499596893753, 0.004605581326237448, 0.0038652355027182467, 0.0049356233813051525, 0.008956745544356787, 0.015767017178977098, -0.0052795758323737054, -0.005390352672946537, -0.0034138781902310076, -0.01784871186084255, -0.007667681254433218, 0.006746462969836725, 0.0003011311966108989, -0.004855734258244878, 0.022090747812788598, -7.902678383487353e-05, -0.0020119098663357606, -0.003916062517132283, 0.014010414542097753, -0.0002872848640335049, -0.011725361980044846, 0.0038903542472736867, -0.0009263075554518594, -0.00045325641160898753, -0.008366160881486394, 0.007879459285187788, 0.009727812449317287, -0.001290835410235615, 0.0028543078780870388, 0.00685839568914328, -0.008087786163890442, -0.005217170454381654, -0.00012792930131642563, 0.014659946092369827, -0.013424973566530985, 0.0021296428725915196, 0.01744766571679436, 0.010275887632444303, 0.0050798852000731925, 0.0006732780877221454, 0.003770544984842489, 0.006609377695281497, 0.002671178280635857, 0.013900296217208613, -0.005531503525944614, -0.001622452951107667, 0.012331188219501807, -0.007054511116256526, -0.01257338447612708, -0.0011778993235363338, 0.008597852043764216, 0.0007052296646869481, -0.008976265840433165, -0.009126708651041546, -0.005020098993668778, 0.0046019059574659935, 0.006594564114312275, 0.005873371347569429, 0.004325601343513531, -0.030064713209317192, -0.010291681895604107, -0.000937248495698541, 0.017996264745622364, -0.002391984571193473, -0.006339868460317619, 0.001965631180895609, -0.016156117410269143, 0.006930147949727593, 0.003009668841978293, -0.010380722110486686, 0.0018608628245174693, 0.02026506787323371, -0.0013463384598435943, -0.013416475192451717, -0.008392306259717723, -0.007101367514393385, -0.0141341970707947, 0.00236854746462855, -0.0014677580674935474, 0.0005685860724028531, 0.0064206715516660715, -0.0018642193453671512, -1.6402871251894042e-05, -0.006558166405548916, -0.011899870329262287, -0.0005593649743353143, 0.0019422085790544307, -0.006902281236901198, 0.0001784909718906342, -0.0032172830094159325, 0.0014908781423562398, -0.013260288977427604, 0.006019535826462222, -0.01842174223857637, 0.014890170042621987, 0.007186604832341497, -0.0001676292569263415, -0.012191198889364515, 0.0016184429553756283, -0.005899883161174372, -0.005721006851762976, 0.0008819937679106592, 0.008118176018127143, -0.0018259960165408916, -0.0028070234826060377, -0.006724162202193451, -0.00422044834078552, -0.00825026979490364, -0.01004848915064659, -0.005583750519979959, -0.0068702281397046054, -0.011781941356818239, -0.00432534870620991, 0.012307668614374994, -0.004773868919042634, 0.0008552624337650632, -0.007891904626932716, -0.011030484977396907, -0.0013024213279618987, -0.01815921167158095, -0.004806697447053766, 0.0033319367846093083, -0.014209409381876082, -0.001519811077769029, 0.0010271874325381988, 0.009181717691130091, -0.0016534415473544446, -0.0008657601932670294, 0.010131642404258909, 0.004523059853717099, -0.004572457921877335, 0.0015375359164295577, 0.0005307399034735396, 0.00917506875671413, -0.010551098411798401, -0.0054389526402994996, 0.013465510989424431, -0.01977799746784888, 0.003371709182506164, 0.005262084644355895, -0.0029270370238526186, -0.010789573040394703, -0.0036289795574939946, -0.010225428090281836, -0.003912573932564645, -0.0006056431158535445, 0.012372604461868822, 0.0028625651055678154, 0.0016994268738264266, -0.01928212618549069, 0.002788836913216738, -0.0042401239738382125], [-0.0022778342930123677, -0.00029106769482931826, 0.00045298496209135225, 0.016952609074307547, -0.009872074020273265, -0.005283064244917353, 0.004739066113238247, -0.004092763673587262, -0.015476139799295815, 0.0013843773353983835, 0.00581004928708303, -0.014815617372789634, -0.0020551532840607516, -0.005467809237217204, 0.011866354351944153, -0.0070973311614321655, 0.017671623172026196, 0.006424484299615302, 0.0008281493754568055, -0.002442400583390563, 0.0006712759379684237, 0.012513396487656724, -0.012974526593520464, 0.0025968624312506907, -4.900609985043713e-05, -0.004613713351093403, 0.0012151078372578436, -0.01006805868727534, -0.009744746452036629, 0.0015647109785484321, 0.009748385914955476, -0.013145548375672184, 0.006655467467409614, -0.006587052691297167, -0.014044304344791467, 0.00693748592529285, 0.011971380888784484, -0.021625911429186302, 0.017398903271897928, 0.009338132891837544, 0.00028439213896079845, 0.007530464507520485, -0.004256023771957256, 0.004224983041843432, 0.008649824490379758, 0.0010413603762208733, -0.006812206216761542, -0.004357309087272766, -0.0006622873945426805, 0.007869539936545577, -0.007429610507504843, -0.006116736079906302, -0.0024357758899745227, -0.01174040465118268, 0.0013985393305693478, -0.0017015490728859918, -0.010299865950159429, -0.008830820045388047, 0.0010799112533990936, 0.007080397765826662, -0.005562044759237271, 0.0023067714881826857, 0.008847722871289663, 0.0015223176585075237, -0.00919613455100442, 0.00289999201259042, 0.00025278982310302124, -0.006424065290803508, 0.0035876370533214756, 0.004393915818463843, 0.003972425323498071, 0.004872662842871869, 0.0005973512773036612, -0.002972094147239994, 0.004338950479216419, -0.004637050339851701, -0.00022147589552998513, 0.003647533219387058, 0.0015909931945782697, 0.0036068494720441183, -0.010455392876564424, 0.005118301322083786, 0.02186020688444058, -0.0150506538244161, 0.003807832048301895, 0.005510697071475682, 0.00922680522261503, 0.010575523245769306, 0.004589527016932925, 0.011009891444071761, -0.0006896757297228505, -0.009090722643237317, -6.00992201470323e-05, 0.006608976212630086, -0.006408388030419088, 0.013202166507850643, -0.00407034307999378, -0.0009214977891447736, 0.0027579279287928858, -1.4738904195545087e-05, -0.0010974419877961498, -0.021583580760445368, 0.003028192074208035, -0.012022482847333269, 1.632406952398941e-05, -0.009598136685665674, 0.018066831439731625, -0.0007827833708720587, 0.009390956866691627, -0.012247220191910203, -0.001339776628434534, -0.00774195342962249, 0.002840774945374756, -0.0014734814037329694, -0.013663689666134647, 0.003718620307772142, 0.01002170006595599, 0.0019261034459137226, 0.0013879889074907962, 0.004864557566847427, -0.006122206472338953, -0.003603934300736335, -0.01838888880895913, -0.001205562028796438, -0.009531133456219039, 0.00013375768980498028, -0.010382526948326925, 0.003572782793658324, -0.009242123805060204, -0.0031846397047769095, -0.005864402776132899, 0.002545941691700399, 0.010329864986516038, -0.005821889830966183, -0.011730493133016624, 0.00242359927804136, 0.005312373233641525, 0.007404344712666978, -0.005698828681996288, -0.005325365020188979, 0.005905679222630581, -0.006142236422453735, 0.011049541671019441, -0.008533373173346822, 0.0002702404606543249, 0.004483605575774506, -0.0008070798830176493, -0.0017003497847403232, 0.0037384732653735196, -0.008343786097276125, -0.006002748946404747, 0.007632205787627315, -0.003486704971027401, -0.009571868578103365, -0.0017959580511914387, 0.004164884437557845, -0.010538274023379457, -0.024460838874392623, 0.02153421293972155, 0.0021833609228829806, -0.011835918879758163, -0.0038615411267329523, -0.007711559501294699, 0.01130547608831309, -0.002580841427903178, 0.0044858018777919695, -0.005757489324124664, -0.002101285181939459, 0.0025789651289006843, 0.007476258120805267, -0.0023089462483035714, -0.0030818204397386533, 0.00923618944648937, 0.004285712315549891, 0.002957742906310707, -0.0030955066629827547, -0.0006524830214720517, 0.00036606469756825445, 0.001005978618936872, 0.005890207237822305, -0.012651424094341364, -0.007224112785571879, 0.001499734406580332, 0.018023469388327364, -0.006799797154543056, 0.0046137565277054, -0.01876831638293676, -0.009698241963808429, 0.004898053544687159, 0.020884691762654967, -0.010650553689995968, 0.018298300083537028, 0.007205236263610272, 0.004618056995381051, -0.004338826049027228, 0.008015385771930502, 0.0022323181668196094, 0.00242580965943295, -0.008026842403332086, -0.002054355181809266, 0.006433625220721233, 0.0038733552681797993, 0.0025681323985224883, -0.011591462893287502, -0.0023016389873792504, 0.005282024885878544, -0.005414372338005028, -0.003460188001316656, -0.007314667429272704, -0.0008653298317889813, 0.007463325528266206, -0.0044393576776049545, -0.011243687754008152, 0.004041901849941551, 0.006532366704333658, 0.006492314489447011, 0.007254285442897423, -0.00845555885829948, -0.007810487378111348, -0.0054210339027782216, 0.002640548186797291, -0.0030395847743610958, -0.0023200495247044503, 0.015525652736080288, 0.007997824261345562, 0.0022141031981617446, 0.01565578694042592, 9.687002538507852e-05, 0.015433748356211254, 0.010131480002009443, -0.0006335453611011139, -0.003477067960398945, -0.0037924533622216844, -0.010132739888322603, -0.0020886627733913707, -0.005308075555312044, -0.003898736258111323, 0.0059975672445796505, 0.003660019856056317, 0.016964921122686463, -0.004255624171182458, 0.0048738794782386885, -0.005151637530880221, 0.006089417776645102, 0.008588712299783707, -0.0006208660597315865, -0.0037139027463136813, -0.007886660422543022, -0.006411984871887784, 0.009377023840348997, -0.009878416766727025, 0.006253343088351, 0.021678154468289048, -0.0005453598656068997, -0.0049545947907388395, -0.006619601551467455, -0.006206552025036082, 0.0061258890393554215, -0.010868244188429672, -0.00854840332859807, -0.016616546482242284, 0.004491219081984181, 0.004340804035607511, 0.013086798192931697, 0.008515417705600986, -0.008296092736859922, 0.01684583559064541, 0.007602084700187494, 0.007670058734532001, 0.009401494142754874, 0.001014981393070444, 0.004377645247901306, -0.006904193455434823, 0.003144474061485748, -0.004751084192250975, -0.006081455411821512, 0.001977106720843692, -0.0028444123014225277, -0.004383895763348312, -0.0013530586958435365, -0.005593054124700412, -0.00841067210599457, -0.004790769731904562, -0.007715822400219282, -1.56415374326815e-05, 0.016397524440709178, -0.004783699939474625, 0.0033393867261612338, -0.009056557256643847, 0.003481116681325887, 0.011370897107699049, -0.009585557892717058, 0.00016036024017244074, -0.01014736748691095, 0.024098924443727573, 0.008840683812106032, 0.012921026954664192, -0.015371959592699986, -0.016018650142553065, -0.019289998446707767, -0.016141302529243676, -0.0028918029912375514, -0.003689521300349235, -0.00235555858438659, -0.01052107347049629, 0.003048241954290563, -0.007103334273556366, 0.00663544606697877, -0.0018588725532741842, 0.006751743015140778, 0.007324565097799414, -0.0031994325699772697, 0.009083493924029792, -0.01051984163301323, -0.0050462337695526775, 0.005591510440807794, -0.0015041090457296562, -0.0014418812457580015, -0.009615091328104914, 0.012089376422105988, 0.01673109300142462, 0.0011766003816945894, 0.006372526929132462, 0.006188922058064853, 0.0017115323991565199, -0.0066208257273498656, 0.00720117583606024, -0.011756700722819596, 0.009446237219211588, 0.008570921649618018, 0.0047252836619715854, 0.011811239063198488, -0.00665377742732499, -0.009474053661065488, -0.010675107279357313, -0.0015439300487753017, -0.017748341138086557, 0.012028629354313045, -0.001726026221772796, 0.008531773116064477, -0.0008599131885389424, 6.0018753099015644e-05, 0.01189951568896238, -0.0034836876154770422, -0.011616530244322194, 0.0023088537929864443, -0.013604923249682103, 0.02139010068925064, 0.0008120307934524597, 0.02630355234176596, 0.012091871751713487, -0.011348210613969574, -0.006628159525202814, 0.0035723061743059186, -0.0007311643158050523, -0.002928624371758174, -0.004652500300304581, 0.0037908537390935553, 0.004049346116801904, -0.0061606074192194675, 0.0002643645345914036, -0.0030693779699584307, 0.001442364934848412, 0.008189213048098547, -0.0019301241695450927, -0.012325308459418921, 0.0013421857954992453, 0.01566167517360616, 0.019108716230884754, -0.0061086238813018775, 0.009847428703238877, -0.0024661975570045925, 0.0054752463760247075, -0.004721562470432061, 0.0008008436593697013, -0.0005192104969690921, -0.0037982170444962353, -0.01582001302487091, 0.013113455405977994, -0.01086788014362824, -0.00020857552729233505, 0.011066517237720605, 0.009823063528270257, -0.0013008839778299813, 0.003993442637413222, -0.007697421474053691, 0.0026062995021199726, 0.013429615927309251, -0.005341151563576467, -0.005355047739485896, 0.0008907535337988682, 0.0008295210356175384, -0.0017472804949074411, 0.0038868303405002235, -0.008426378718124254, -0.008373586674671998, -0.01972810201384319, 0.004294662246366286, -0.0037622439888028766, -0.006039993749843229, -0.0011766439288408328, 0.01791301718073193, -0.0071831255572672465, 0.0010730312170916557, 0.0018729828609416832, 0.0030102224838479893, 0.0032088655812298667, -0.009481662279334203, 0.004704214738108436, -0.009007742892747132, 0.0023572134512083822, 0.005015906273734986, 0.004821103957371806, 0.014839640557229609, -0.0010896171329686619, 0.0009213847816549113, 0.004617942027262723, -0.006581771664309868, -0.019367762201841596, -0.013253605152999445, -0.006792584438918594, 0.002819526684140241, 0.01772852826850967, 0.003561430706125632, 0.0018833129872274901, -0.003125735905951105, -0.008173901376278611, 0.007411260698598034, -0.002496085650647862, 0.0023304434229681832, -0.0009772155325730501, -0.013449803835733711, 0.0076536140106076645, 0.00802727259343438, -0.0014385241124840857, -0.004425309495356465, 0.0052876160022488515, 0.00463595996029529, 0.014034556299850693, 0.0005930256742582091, -0.005373936474686155, 0.005648661736653976, -0.0038095826219124987, 0.006219468463258163, -0.0005528095753012773, -0.0025830863954472657, -0.0036387297064237466, 0.00875080490728756, 0.004549318539261576, -0.004073135417445859, -0.005187615616077206, 0.004393387785670444, 0.0012447867099279794, -0.002071468965238943, 0.002189112523818096, -0.0022759966598239778, -0.006272857896435115, -0.016158206935241965, -0.012205324134321438, 0.008643735611355114, -0.003584611341433812, 0.005464488623048194, 0.007804454545580327, -0.0020854053167731848, 0.014717869779772706, -0.005162775437607096, 0.007883812331427155, 0.008275157750877952, 0.004873664373072574, 0.010806946191834041, 0.009209812214474367, 0.008338245931001754, 0.0021092451369537795, -0.0075712130934298145, 0.008378431755461869, 0.003965123157426323, -0.0016506322128897889, -0.00425960068801712, -0.016660513417212315, 0.005120604838849939, -0.01715487106200906, 0.01833860221623814, -0.0036827450708923006, -0.02032955216071455, 0.005020278882268144, 0.009359041935113459, -0.0016177650387824575, -0.002269371100702036, 0.005600975605428961, -0.007861098879452456, -0.010543677600770667, 0.0010258128308501633, -0.0051294722512244045, -0.002031622019869925, 0.010416837926568915, 0.0005276205592187589, 0.0029150322004178582, -0.0032543023321116864, -0.0017098900625640324, 0.0070556019703533765, 0.001646821989887829, -0.01105240928932445, -0.021549800133953887, 0.003022359663628232, 0.0014322746470417488, -0.018638412341126603, 0.007842817263236948, -0.0063089736912783825, 0.012737425560390597, 0.005687408642379134, -0.0017822056654989778, -0.0068199139350168785, 0.007856524575066286, -0.012990722158276825, 8.217451492500117e-05, 0.01017939103564452, 0.006529608030722858, -0.013177785678294607, 0.0033857054110643502, -0.008175700099719466, 0.002285430220103698, -0.00019654531633557943, 0.0014756859643582478, -0.0013930971640489253, 0.008051761529036548, -0.016301073378135023, 0.0038788240912810586, 